/*
 * Copyright (c) 2025 EdgeImpulse Inc.
 *
 * Generated by Edge Impulse and licensed under the applicable Edge Impulse
 * Terms of Service. Community and Professional Terms of Service
 * (https://edgeimpulse.com/legal/terms-of-service) or Enterprise Terms of
 * Service (https://edgeimpulse.com/legal/enterprise-terms-of-service),
 * according to your product plan subscription (the “License”).
 *
 * This software, documentation and other associated files (collectively referred
 * to as the “Software”) is a single SDK variation generated by the Edge Impulse
 * platform and requires an active paid Edge Impulse subscription to use this
 * Software for any purpose.
 *
 * You may NOT use this Software unless you have an active Edge Impulse subscription
 * that meets the eligibility requirements for the applicable License, subject to
 * your full and continued compliance with the terms and conditions of the License,
 * including without limitation any usage restrictions under the applicable License.
 *
 * If you do not have an active Edge Impulse product plan subscription, or if use
 * of this Software exceeds the usage limitations of your Edge Impulse product plan
 * subscription, you are not permitted to use this Software and must immediately
 * delete and erase all copies of this Software within your control or possession.
 * Edge Impulse reserves all rights and remedies available to enforce its rights.
 *
 * Unless required by applicable law or agreed to in writing, the Software is
 * distributed on an "AS IS" BASIS, WITHOUT WARRANTIES OR CONDITIONS OF ANY KIND,
 * either express or implied. See the License for the specific language governing
 * permissions, disclaimers and limitations under the License.
 */
// Generated on: 22.11.2025 06:47:02

#include <stdio.h>
#include <stdlib.h>
#include "edge-impulse-sdk/tensorflow/lite/c/builtin_op_data.h"
#include "edge-impulse-sdk/tensorflow/lite/c/common.h"
#include "edge-impulse-sdk/tensorflow/lite/micro/micro_mutable_op_resolver.h"
#include "edge-impulse-sdk/porting/ei_classifier_porting.h"

#if EI_CLASSIFIER_PRINT_STATE
#if defined(__cplusplus) && EI_C_LINKAGE == 1
extern "C" {
    extern void ei_printf(const char *format, ...);
}
#else
extern void ei_printf(const char *format, ...);
#endif
#endif

#define STRINGIZE(x) #x
#define STRINGIZE_VALUE_OF(x) STRINGIZE(x)

#if defined (__GNUC__)  /* GNU compiler */
#define ALIGN(X) __attribute__((aligned(X)))
#define DEFINE_SECTION(x) __attribute__((section(x)))
#elif defined (_MSC_VER)
#define ALIGN(X) __declspec(align(X))
#elif defined (__TASKING__) /* TASKING Compiler */
#define ALIGN(X) __align(X)
#define DEFINE_SECTION(x) __attribute__((section(x)))
#elif defined (__ARMCC_VERSION) /* Arm Compiler */
#define ALIGN(X) __ALIGNED(x)
#define DEFINE_SECTION(x) __attribute__((section(x)))
#elif defined (__ICCARM__) /* IAR Compiler */
#define ALIGN(x) __attribute__((aligned(x)))
#define DEFINE_SECTION(x) __attribute__((section(x)))
#elif defined (__clang__) /* LLVM/Clang Compiler */
#define ALIGN(X) __ALIGNED(x)
#define DEFINE_SECTION(x) __attribute__((section(x)))
#endif

#if defined(EI_MODEL_SECTION) && (defined(__GNUC__) || defined(__clang__))
#define MODEL_SECTION(X) __attribute__((section(STRINGIZE_VALUE_OF(X))))
#else
#define MODEL_SECTION(X)
#endif

#ifndef EI_MAX_SCRATCH_BUFFER_COUNT
#ifndef CONFIG_IDF_TARGET_ESP32S3
#define EI_MAX_SCRATCH_BUFFER_COUNT 14
#else
#define EI_MAX_SCRATCH_BUFFER_COUNT 28
#endif // CONFIG_IDF_TARGET_ESP32S3
#endif // EI_MAX_SCRATCH_BUFFER_COUNT

#ifndef EI_MAX_OVERFLOW_BUFFER_COUNT
#define EI_MAX_OVERFLOW_BUFFER_COUNT 10
#endif // EI_MAX_OVERFLOW_BUFFER_COUNT

using namespace tflite;
using namespace tflite::ops;
using namespace tflite::ops::micro;

namespace {

#if defined(EI_CLASSIFIER_ALLOCATION_STATIC_HIMAX) || defined(EI_CLASSIFIER_ALLOCATION_STATIC_HIMAX_GNU)
constexpr int kTensorArenaSize = 242656;
#else
constexpr int kTensorArenaSize = 241632;
#endif

#if defined(EI_CLASSIFIER_ALLOCATION_STATIC)
#if defined (EI_TENSOR_ARENA_LOCATION)
uint8_t tensor_arena[kTensorArenaSize] ALIGN(16) DEFINE_SECTION(STRINGIZE_VALUE_OF(EI_TENSOR_ARENA_LOCATION));
#else
uint8_t tensor_arena[kTensorArenaSize] ALIGN(16);
#endif
#elif defined(EI_CLASSIFIER_ALLOCATION_STATIC_HIMAX)
#pragma Bss(".tensor_arena")
uint8_t tensor_arena[kTensorArenaSize] ALIGN(16);
#pragma Bss()
#elif defined(EI_CLASSIFIER_ALLOCATION_STATIC_HIMAX_GNU)
uint8_t tensor_arena[kTensorArenaSize] ALIGN(16) __attribute__((section(".tensor_arena")));
#else
#define EI_CLASSIFIER_ALLOCATION_HEAP 1
uint8_t* tensor_arena = NULL;
#endif

static uint8_t* tensor_boundary;
static uint8_t* current_location;

template <int SZ, class T> struct TfArray {
  int sz; T elem[SZ];
};

enum used_operators_e {
  OP_CONV_2D, OP_DEPTHWISE_CONV_2D, OP_PAD, OP_ADD, OP_SOFTMAX,  OP_LAST
};

struct TensorInfo_t { // subset of TfLiteTensor used for initialization from constant memory
  TfLiteAllocationType allocation_type;
  TfLiteType type;
  void* data;
  TfLiteIntArray* dims;
  size_t bytes;
  TfLiteQuantization quantization;
};

typedef struct {
  TfLiteTensor tensor;
  int16_t index;
} TfLiteTensorWithIndex;

typedef struct {
  TfLiteEvalTensor tensor;
  int16_t index;
} TfLiteEvalTensorWithIndex;

TfLiteContext ctx{};
static const int MAX_TFL_TENSOR_COUNT = 4;
static TfLiteTensorWithIndex tflTensors[MAX_TFL_TENSOR_COUNT];
static const int MAX_TFL_EVAL_COUNT = 4;
static TfLiteEvalTensorWithIndex tflEvalTensors[MAX_TFL_EVAL_COUNT];
TfLiteRegistration registrations[OP_LAST];

namespace g0 {
const TfArray<4, int> tensor_dimension0 = { 4, { 1,96,96,3 } };
const TfArray<1, float> quant0_scale = { 1, { 0.0039215688593685627, } };
const TfArray<1, int> quant0_zero = { 1, { -128 } };
const TfLiteAffineQuantization quant0 = { (TfLiteFloatArray*)&quant0_scale, (TfLiteIntArray*)&quant0_zero, 0 };
const MODEL_SECTION(EI_MODEL_SECTION) ALIGN(16) int32_t tensor_data1[4*2] = { 
  0, 0, 
  0, 1, 
  0, 1, 
  0, 0, 
};
const TfArray<2, int> tensor_dimension1 = { 2, { 4,2 } };
const MODEL_SECTION(EI_MODEL_SECTION) ALIGN(8) int32_t tensor_data2[3] = { 18197, -25028, -30259, };
const TfArray<1, int> tensor_dimension2 = { 1, { 3 } };
const TfArray<3, float> quant2_scale = { 3, { 0.00025612497120164335, 0.00018902198644354939, 0.00021503647440113127, } };
const TfArray<3, int> quant2_zero = { 3, { 0,0,0 } };
const TfLiteAffineQuantization quant2 = { (TfLiteFloatArray*)&quant2_scale, (TfLiteIntArray*)&quant2_zero, 0 };
const MODEL_SECTION(EI_MODEL_SECTION) ALIGN(16) int8_t tensor_data3[3*1*1*32] = { 
  /* [0][0][][] */ 21,12,107,-80,-60,-7,-8,20,-20,42,18,-37,-9,-86,82,19,-51,31,127,79,-12,-30,16,-66,-39,11,-51,13,74,35,-39,104, 
  /* [1][0][][] */ 58,-52,-72,38,-9,126,-18,-10,123,-50,-2,-76,-67,109,36,-48,90,-44,-6,-93,-117,23,127,93,45,24,1,-8,-96,-53,-8,-66, 
  /* [2][0][][] */ -34,71,-86,71,74,-31,-24,103,87,22,113,-3,-71,-71,71,103,-68,-40,-17,-126,56,104,-33,-68,123,-49,-5,-127,-30,-66,68,-48, 
};
const TfArray<4, int> tensor_dimension3 = { 4, { 3,1,1,32 } };
const TfArray<3, float> quant3_scale = { 3, { 0.0043768305331468582, 0.0032301307655870914, 0.0036746833939105272, } };
const TfLiteAffineQuantization quant3 = { (TfLiteFloatArray*)&quant3_scale, (TfLiteIntArray*)&g0::quant2_zero, 0 };
const MODEL_SECTION(EI_MODEL_SECTION) ALIGN(16) int32_t tensor_data4[32] = { -5, 248, 493, -281, -329, 131, -72, 119, -125, -472, 114, -56, -435, -151, -313, -196, -73, -523, 1917, 9, 78, -80, 174, -172, 258, -184, -788, 450, -239, 97, -118, 1366, };
const TfArray<1, int> tensor_dimension4 = { 1, { 32 } };
const TfArray<32, float> quant4_scale = { 32, { 6.5632957557681948e-05, 5.9992224123561755e-05, 4.9299796955892816e-05, 5.1851206080755219e-05, 4.8453352064825594e-05, 5.0436738092685118e-05, 4.4154116039862856e-05, 4.4161719415569678e-05, 5.5069176596589386e-05, 4.5901899284217507e-05, 5.1860697567462921e-05, 9.610752749722451e-05, 4.6661032683914527e-05, 4.747119965031743e-05, 4.1976800275733694e-05, 5.230233000474982e-05, 5.044739373261109e-05, 4.3097687012050301e-05, 6.8094501330051571e-05, 5.0090460717910901e-05, 5.2179111662553623e-05, 4.9847865739138797e-05, 5.2278435759944841e-05, 6.0520629631355405e-05, 9.5787327154539526e-05, 5.4820786317577586e-05, 5.6544675317127258e-05, 6.6741689806804061e-05, 6.2354163674172014e-05, 4.6674758777953684e-05, 5.7216169807361439e-05, 5.4761072533437982e-05, } };
const TfArray<32, int> quant4_zero = { 32, { 0,0,0,0,0,0,0,0,0,0,0,0,0,0,0,0,0,0,0,0,0,0,0,0,0,0,0,0,0,0,0,0 } };
const TfLiteAffineQuantization quant4 = { (TfLiteFloatArray*)&quant4_scale, (TfLiteIntArray*)&quant4_zero, 0 };
const MODEL_SECTION(EI_MODEL_SECTION) ALIGN(16) int8_t tensor_data5[32*1*1*96] = { 
  /* [0][0][][] */ -54,-47,56,21,61,-33,-64,-47,48,-82,-73,-9,62,17,-34,43,-38,-21,-8,-24,-45,-68,6,71,-93,-7,41,-34,69,48,-11,-58,56,-33,-51,21,-72,-61,-43,2,40,-66,-60,72,12,-60,62,-11,15,-53,-51,81,-25,-23,-53,58,27,56,73,-66,-41,51,-54,15,11,14,46,38,21,71,65,-82,76,-73,33,55,-41,15,-45,15,16,28,63,-15,-44,-48,-48,57,20,87,-11,-127,21,12,59,26, 
  /* [1][0][][] */ -93,27,-38,2,-50,48,34,-1,66,-60,-77,79,48,-35,29,47,83,-19,18,56,-42,2,28,25,63,-2,-21,80,10,-27,62,-67,51,73,-6,19,43,38,-15,-49,-39,7,-29,-75,-13,0,-43,-35,-8,-53,60,32,1,42,-42,-32,15,50,39,58,-67,104,-75,-65,-45,24,61,30,84,1,10,-3,-81,57,-31,37,35,-29,-27,58,-52,41,-53,-127,24,84,-51,-50,53,59,77,-27,44,89,-17,-24, 
  /* [2][0][][] */ 71,47,-39,91,-54,-43,80,127,-104,106,-23,83,45,-22,100,-100,-47,-35,57,10,-96,-7,103,32,13,55,88,-1,-75,10,77,62,-54,-11,-81,-77,-70,89,118,-25,-99,-75,9,22,-48,104,-26,-55,99,3,94,-73,-49,44,39,18,-77,45,-43,5,-17,50,-46,45,80,42,49,69,-76,51,-3,-84,23,-55,60,32,-62,-14,5,31,28,-83,-17,-42,9,-69,-29,-36,70,105,-41,-52,-44,-80,-46,-71, 
  /* [3][0][][] */ 25,2,34,-49,-58,38,-101,-11,53,9,40,28,101,98,49,5,99,86,-65,-7,102,-79,-53,-101,-34,-79,-55,104,59,-84,66,-19,-39,-44,-3,1,-62,-43,-12,34,-30,-78,-80,-1,31,12,-53,-84,54,-30,0,-9,92,26,39,-119,-117,-106,-107,-42,-83,42,2,67,40,-29,-58,-36,-61,-45,-7,85,16,-127,52,-35,9,84,77,-68,-63,-104,37,51,26,45,-26,-112,-62,25,9,-91,105,-108,-90,52, 
  /* [4][0][][] */ 20,86,-14,27,-41,-35,27,-32,48,52,-8,37,67,-42,-21,-54,-19,4,-103,11,106,-84,69,20,-10,-7,65,-59,-39,67,-74,-54,73,110,13,-81,-52,-7,-127,54,-40,-62,-50,-88,19,99,32,43,12,-39,17,-60,-85,66,-107,-2,60,-53,-6,18,42,-60,-12,-73,-21,58,-4,-17,40,-65,-80,-82,-44,12,90,41,60,-27,-7,-78,14,-37,-73,-19,-2,68,83,13,-93,-43,52,67,44,127,-98,-18, 
  /* [5][0][][] */ 74,-74,59,70,44,-97,24,49,96,-116,0,-48,34,98,27,39,59,54,-71,108,30,45,20,-22,-127,-44,-15,-72,49,36,19,-72,-28,2,-57,18,-86,-21,34,16,-70,-39,36,85,-34,25,40,-43,-85,89,-19,23,40,21,32,-23,109,53,-45,-29,17,-57,54,-68,-51,91,-20,17,58,-3,97,-53,-34,77,-9,-57,18,-36,11,68,90,39,27,97,-64,70,7,38,62,-80,95,108,-16,-4,84,-67, 
  /* [6][0][][] */ 54,-50,111,72,-88,-64,-2,77,-24,-83,8,-92,79,50,118,-120,35,-1,12,76,-80,-115,106,59,-70,-96,-7,-60,-45,-127,44,-86,-82,-107,-55,-118,-13,42,-106,79,82,49,14,-9,-105,103,-85,-48,-79,-19,-8,-75,51,-41,88,-41,15,-25,-75,107,-95,-11,68,-67,-43,62,98,-48,53,-22,-109,-14,50,-81,-85,-40,-80,-99,-56,-25,27,-26,38,-23,-70,-77,-49,-99,76,94,83,7,-54,-52,72,-49, 
  /* [7][0][][] */ 98,72,-30,-56,-89,101,-14,-37,116,12,-90,34,99,-88,44,79,60,26,-32,107,63,39,-3,87,-54,111,52,61,-65,114,-22,37,26,34,61,110,-96,90,-31,-16,104,-65,95,69,50,0,113,-107,47,-33,-107,-72,-23,110,7,18,127,-74,17,-51,19,18,90,-127,-39,-44,68,38,-92,34,68,87,90,14,61,60,-73,55,-92,29,102,-41,-19,-71,90,42,-98,108,87,7,101,62,-44,-2,-90,-71, 
  /* [8][0][][] */ -4,24,-43,-76,47,4,-59,-34,11,3,34,90,41,-24,-78,-51,-50,78,-82,37,31,-21,63,83,-127,84,37,63,-46,39,-74,104,72,-25,36,0,96,7,-28,56,67,87,-83,-97,-21,-20,-8,81,13,-61,-81,-11,-50,11,-34,-94,59,102,-76,83,86,37,60,66,-31,-31,-18,78,-71,40,34,8,65,57,9,16,-33,82,65,46,30,64,-85,-61,20,32,70,-22,34,-32,-59,114,-58,-79,-41,45, 
  /* [9][0][][] */ -2,-8,100,39,51,-120,-54,-119,32,36,-21,30,-47,-87,-101,-38,-11,-7,-84,-62,-9,85,-115,-108,88,-11,-18,22,-11,-34,-90,74,49,-4,18,-38,-94,4,-24,-48,32,-81,43,-109,70,8,-107,41,40,4,-80,-40,61,-79,-69,89,66,-78,-26,-19,-86,88,61,-66,44,-8,90,42,-13,89,76,-110,-5,62,-100,-99,-47,-127,-46,92,20,19,77,14,-52,-103,21,-30,81,30,-27,90,96,-7,54,-36, 
  /* [10][0][][] */ -66,72,80,-67,-29,79,93,-6,36,27,23,-40,127,68,-30,17,-21,75,-111,-52,-6,28,49,-55,35,56,-86,-89,-31,80,-81,-63,74,91,95,71,-29,11,-44,39,-19,105,-81,-30,-82,-45,10,-49,-6,20,28,2,52,42,-62,-42,-69,2,35,-34,8,84,107,17,119,-53,-78,-5,27,-6,-72,-50,78,44,-66,93,-20,55,60,5,77,-5,46,89,-78,65,92,-4,37,9,12,-52,-34,-10,-110,-61, 
  /* [11][0][][] */ 70,13,-9,55,40,14,19,27,52,47,-36,51,99,-45,14,-35,-30,-53,35,9,15,32,8,-49,-54,-56,-23,23,18,17,15,-8,-45,-35,17,25,-33,27,7,-32,-16,41,-26,8,-15,-27,-49,-43,32,36,75,21,-50,-39,5,14,-34,-21,-13,-46,-23,29,63,-9,127,37,-27,11,51,32,-36,-40,11,43,-42,21,-40,11,-24,47,-56,-22,-26,-22,19,-26,3,-14,-45,3,-1,-44,-37,-1,18,-11, 
  /* [12][0][][] */ 9,63,-65,-14,102,52,-41,15,-72,57,-21,16,-50,1,33,-75,-102,-35,-53,-77,14,-21,7,79,-36,-45,82,-106,80,2,-52,84,-100,-79,-44,17,-6,-70,-25,28,101,24,-114,-46,-29,-86,-40,98,-50,-91,-42,100,17,-12,-89,84,-50,-62,43,54,45,92,-22,78,127,24,-54,95,61,87,21,53,68,70,-46,-17,-43,23,-116,-61,-61,96,32,-7,-45,21,38,97,-99,-106,86,8,84,-6,32,80, 
  /* [13][0][][] */ 96,-57,80,92,114,89,72,55,79,-127,7,-37,86,71,53,-41,-113,-61,-71,56,59,-27,104,-49,-80,38,-1,13,-83,-97,73,49,37,94,-14,35,-82,-19,1,59,-53,76,-54,-2,-41,24,4,-26,37,79,-83,-113,-101,31,83,-78,-38,31,-36,-66,-45,92,-62,22,-76,-54,-85,78,-32,-23,85,8,-84,50,-71,-44,-88,56,73,-54,46,-94,82,20,-74,-103,93,119,-11,-51,-82,94,100,-95,59,-9, 
  /* [14][0][][] */ -79,-106,83,59,82,-29,-21,-127,-81,-45,67,93,-25,-89,-98,-99,-59,-67,1,37,-38,26,-10,58,-115,-67,-30,27,-116,-123,-81,42,92,-32,-41,-1,93,119,33,-115,-4,-114,43,87,69,-117,60,-90,108,51,78,57,89,-20,-12,21,-67,-16,53,88,-21,-88,-23,64,-125,-10,71,-118,-91,-88,-99,103,-10,88,42,-82,53,-120,52,24,50,-30,-111,-37,-120,-92,-124,113,113,7,83,-57,84,111,-25,61, 
  /* [15][0][][] */ -10,-29,-25,49,48,-85,51,-103,52,1,-62,7,82,-8,-72,-93,75,14,-99,-4,38,16,54,87,81,56,37,75,24,50,45,-97,3,6,-64,-7,-64,91,91,-52,16,89,-37,-31,21,-70,-38,-62,-11,-59,-2,32,-87,-77,-56,-19,61,44,-63,92,-26,-39,-12,70,-7,82,-60,12,-31,11,38,-67,7,-32,37,-93,-17,40,87,59,-58,43,-99,-61,-98,-31,-78,34,71,62,-68,-40,54,127,-116,85, 
  /* [16][0][][] */ -60,0,77,-49,55,104,-46,39,49,22,-91,66,-3,-26,-51,-46,94,68,60,82,100,67,-31,44,-72,56,-60,58,-81,24,37,24,-90,63,52,47,-24,53,-44,-61,20,-35,61,76,45,92,95,-12,-45,-95,-23,92,-30,99,57,38,34,86,51,15,92,81,49,53,17,15,-30,72,29,81,-18,2,30,90,59,76,6,86,-92,-11,10,-65,57,18,11,83,97,13,71,14,-14,127,61,-58,-32,28, 
  /* [17][0][][] */ 21,-113,22,70,-54,-106,-77,-100,35,-102,73,39,82,50,-122,38,18,43,98,100,-108,-25,1,-63,15,48,-91,22,101,-72,-42,71,-37,-32,9,-2,-63,90,-90,-42,-105,-50,-29,-21,3,4,73,-118,79,87,-41,16,-22,69,83,-85,-127,73,-99,-120,20,-115,52,94,-123,-81,31,-113,-113,-14,93,18,3,-118,-94,56,105,-62,32,-63,4,-28,-96,-101,-120,61,68,-39,9,67,-100,-120,-20,94,-9,4, 
  /* [18][0][][] */ -38,50,102,25,-4,-40,-28,65,-10,103,-22,-92,-92,28,110,-4,24,-13,127,-77,39,16,48,8,80,-76,-6,56,10,-71,44,-14,12,16,-4,-91,-5,49,6,34,-12,6,-9,51,-36,20,26,41,20,-51,12,66,-41,-18,50,45,-32,-8,-7,-59,5,68,-58,29,24,-60,27,38,42,-28,-36,49,-33,-61,-37,-45,42,74,17,-42,-48,6,-34,-64,93,-13,39,5,-85,5,-98,-41,26,-41,59,26, 
  /* [19][0][][] */ 32,10,74,46,51,3,85,99,77,11,26,-6,-81,20,-30,47,63,-102,109,56,-27,71,-48,19,65,-61,25,-49,-94,-107,-46,43,68,-74,19,-41,10,-59,-36,-86,31,-107,-80,19,-80,20,66,-85,-25,23,-42,43,-24,2,18,-9,21,60,-21,-26,36,-70,99,66,-63,-1,-18,-2,-37,27,60,-55,-62,-124,-52,-65,-28,-97,12,97,46,-110,-24,65,-69,3,-5,-12,73,26,-16,50,-38,127,61,-55, 
  /* [20][0][][] */ -30,59,64,88,-76,71,21,58,18,28,-69,-10,0,55,43,-53,-41,-28,-44,-46,10,-32,-61,-53,127,-82,-79,37,12,14,-27,87,89,35,-11,46,35,-31,0,-89,-69,-31,-80,-83,-10,-61,-74,89,56,-102,-90,46,45,66,56,2,78,55,83,74,74,-50,-81,-36,-19,-53,-37,10,-52,-71,-52,54,-53,-76,18,19,83,65,90,93,73,-9,59,-32,53,95,-18,54,12,85,24,13,4,38,-14,-7, 
  /* [21][0][][] */ 63,67,59,-105,76,-79,64,-28,3,-70,-62,59,60,37,-56,-73,-82,-17,-14,9,105,-42,60,-74,34,-58,-20,68,22,37,-15,-8,6,22,-84,-88,99,87,-127,-20,3,16,33,-18,-97,-70,-55,74,-26,-37,-13,58,28,87,-99,8,-27,70,-39,105,59,-49,40,-32,86,34,-33,-46,-88,6,59,78,35,-22,64,57,-100,-28,56,76,23,83,31,-55,23,-77,67,-53,-81,62,112,-63,-26,-29,3,-35, 
  /* [22][0][][] */ 50,-34,-76,-64,60,-72,74,55,-82,93,-53,-123,81,-94,-79,-70,8,63,-114,-72,56,-69,25,26,85,-24,-111,60,-94,-66,-44,-57,25,62,-13,26,-10,5,-45,-126,14,-5,8,91,74,-74,97,-14,-42,-104,-4,-5,-75,-62,-33,23,-11,-44,-52,-33,70,-89,-84,-127,-58,30,-102,-97,41,88,-103,5,-71,21,40,-92,0,-49,36,93,79,-77,-90,-90,73,74,77,-10,-71,33,-90,74,1,4,-10,77, 
  /* [23][0][][] */ 54,-81,-10,64,65,-105,-3,-57,52,-95,60,32,12,-70,3,-26,47,-33,-56,79,65,-59,72,-34,-42,-7,48,1,35,17,60,-35,-16,27,27,14,56,-10,-77,2,-87,2,1,-82,-62,-63,87,17,60,-113,-127,-54,64,-66,-50,63,-80,0,58,27,-100,-86,-54,-22,25,15,-85,-76,12,-19,86,-47,3,-22,-27,-79,17,-20,62,83,-55,-34,9,-66,59,-9,87,-37,-78,21,58,2,59,-67,-28,61, 
  /* [24][0][][] */ -77,-3,-38,-51,-65,-64,-58,-34,-39,48,29,-7,25,34,-8,-85,-23,18,4,-71,40,-44,-17,-23,-32,-45,22,37,38,16,1,-31,14,21,11,38,-15,-40,9,-19,-30,-60,42,17,-2,-9,-18,16,-10,-56,-42,-6,48,39,15,-68,13,8,-32,12,24,-29,41,57,-49,41,-27,-55,-70,9,-39,-31,-28,-5,73,59,15,-24,-57,-17,-33,-70,-49,-81,11,47,-6,-64,21,-46,5,-127,-7,-15,-52,-11, 
  /* [25][0][][] */ -65,-62,-80,22,58,-74,-81,52,35,-107,-26,-19,15,-2,-93,-9,-73,47,30,-88,36,65,-12,-52,4,-64,-90,12,47,-77,29,69,104,-73,55,39,60,-60,-11,-6,-88,48,-95,-6,71,35,35,29,-66,32,-44,16,33,-11,-62,20,-4,62,-57,63,102,20,28,19,4,54,-11,14,-80,-18,-17,-127,35,-83,63,9,58,54,7,7,14,63,-47,50,-73,-51,-79,-91,-40,10,76,-10,-100,-30,72,-48, 
  /* [26][0][][] */ 48,-66,-29,-16,-41,36,-19,1,-74,-127,63,101,-7,-41,-11,-30,82,19,-60,13,17,39,61,-6,2,49,-5,47,11,79,-87,28,1,-60,-92,-50,-57,51,-33,78,-85,70,22,1,-61,47,-46,64,-7,39,38,57,-7,-38,-2,-69,69,64,-6,12,17,-83,94,-9,16,-26,-57,49,-63,45,62,84,37,-23,-56,2,40,-98,-80,33,-20,52,70,-48,49,-4,-43,14,-53,69,44,116,-30,75,84,51, 
  /* [27][0][][] */ 27,25,-14,-44,-28,-29,-41,57,30,107,23,-51,-19,39,77,-20,55,-17,127,-43,-67,17,-7,-5,-38,19,-75,26,64,-10,0,-22,43,43,-33,-30,-38,-44,-26,51,-66,14,16,30,85,14,25,90,76,50,46,-47,-17,-70,24,-1,64,-32,-90,-44,-52,-13,-33,55,15,-36,-59,62,46,0,-83,7,29,-15,11,-37,20,-29,61,86,55,-16,87,-46,-36,-50,-23,0,-26,-10,-23,-54,34,6,74,41, 
  /* [28][0][][] */ 82,17,62,11,-20,5,-84,-22,-69,27,37,48,-33,-74,-3,68,73,60,-2,119,-30,3,-76,-55,-76,59,-103,-41,-49,-12,-18,64,-84,15,41,73,16,-73,107,31,69,9,-74,45,-87,-8,-3,22,9,7,-82,-40,-62,39,34,64,89,38,34,55,10,-11,22,37,110,50,-27,61,44,12,-81,-46,51,127,57,-59,-7,-43,-73,25,-51,-63,56,-24,37,-54,40,-51,-74,-51,12,-14,22,66,-51,-46, 
  /* [29][0][][] */ 70,51,60,-23,-78,0,-105,39,89,16,-78,-97,91,-104,-28,-50,-96,87,74,-76,-73,-28,51,13,-14,-3,-45,-34,-110,-7,100,-10,39,8,-81,-48,-15,99,14,85,46,93,-40,87,16,99,-56,-16,17,-16,96,-74,50,-97,127,58,-108,21,-58,93,-100,79,-102,-41,-20,-57,50,79,88,-81,19,-73,95,74,65,24,103,-57,-26,50,-7,-79,0,-70,61,109,30,70,-36,93,46,38,-98,-6,8,47, 
  /* [30][0][][] */ 38,-45,-46,45,-88,0,-48,7,101,-30,4,-60,-82,29,37,4,-10,33,127,-105,39,-74,-86,4,-92,21,-43,89,-2,-99,-60,4,-66,-38,-89,-33,-5,-16,27,39,64,-43,14,64,74,-21,80,43,-70,53,6,-88,77,-40,-19,73,-48,-43,-68,-42,-70,-5,-49,-8,-54,-64,-70,86,-36,106,35,-18,-64,70,44,-60,-49,-58,-51,-28,23,23,-81,-5,-82,21,-72,86,-24,-91,55,34,-27,0,-9,-35, 
  /* [31][0][][] */ 127,-86,66,124,23,38,-13,-9,-41,31,-25,-104,25,-101,25,105,-35,-89,98,36,32,66,-1,125,72,-88,35,18,-76,-83,68,92,39,37,-23,-19,79,0,-3,-59,62,-55,-19,68,32,-37,-10,62,80,-31,60,15,-108,-44,-15,36,-102,7,16,108,-63,15,56,-68,118,101,5,-32,86,-90,-87,-17,-56,-24,25,19,-50,-13,63,64,-61,-36,39,55,69,101,-74,13,9,-11,-106,-76,3,91,6,30, 
};
const TfArray<4, int> tensor_dimension5 = { 4, { 32,1,1,96 } };
const TfArray<32, float> quant5_scale = { 32, { 0.0027894005179405212, 0.0025496694725006819, 0.0020952413324266672, 0.002203676151111722, 0.0020592673681676388, 0.0021435613743960857, 0.001876549911685288, 0.0018768730806186795, 0.0023404399398714304, 0.0019508306868374348, 0.0022040796466171741, 0.0040845698677003384, 0.0019830937962979078, 0.0020175259560346603, 0.0017840140499174595, 0.0022228490561246872, 0.0021440142299979925, 0.0018316516652703285, 0.0028940162155777216, 0.0021288446150720119, 0.0022176122292876244, 0.0021185341756790876, 0.002221833448857069, 0.0025721266865730286, 0.004070961382240057, 0.0023298833984881639, 0.0024031486827880144, 0.002836521714925766, 0.0026500518433749676, 0.0019836772698909044, 0.0024316872004419565, 0.0023273455444723368, } };
const TfLiteAffineQuantization quant5 = { (TfLiteFloatArray*)&quant5_scale, (TfLiteIntArray*)&g0::quant4_zero, 0 };
const MODEL_SECTION(EI_MODEL_SECTION) ALIGN(16) int32_t tensor_data6[96] = { -1409, 3421, 8191, 1883, -2991, -3633, 12445, 3130, 1959, -1361, 12588, -292, -11182, 2346, 13687, 6964, 9196, 5322, -4002, -4534, 4829, 30456, 19369, 15224, 1577, 1062, 5476, 2680, 1958, -4608, 5833, -3584, -527, 4020, -48, 802, 7149, 4614, -1859, 5147, 6561, 6534, 4628, 8585, 4582, 4846, 1504, 6952, 7095, -4943, -6996, 359, -328, -1648, 1814, -27, 164, -820, -4096, 9881, -954, 1399, -975, -1905, -3623, 6449, 26928, 1940, -2535, 593, 1348, 2260, 2269, -1028, 591, 7470, -551, 14156, 11375, -581, 9785, 1956, -540, 1582, 15426, 9759, 4427, 1272, 4815, 3717, -542, -9930, 719, -2258, -1369, -1990, };
const TfArray<1, int> tensor_dimension6 = { 1, { 96 } };
const TfArray<96, float> quant6_scale = { 96, { 0.00040208699647337198, 0.00045428852899931371, 0.00029022415401414037, 0.00047454328159801662, 0.00035454725730232894, 0.000403333775466308, 0.00026639705174602568, 0.00026742863701656461, 0.00032607611501589417, 0.0004545495321508497, 0.00015564332716166973, 0.00027906685136258602, 0.00022805864864494652, 0.0012324316194280982, 0.00022610029554925859, 0.00016761654114816338, 0.00020123481226619333, 0.00026826816610991955, 0.00047563092084601521, 0.00037530556437559426, 0.00012596830492839217, 8.8897504610940814e-05, 0.00015724761760793626, 0.00010937018669210374, 0.00017781172937247902, 0.00043774303048849106, 0.00054272782290354371, 0.00040816038381308317, 0.00024342210963368416, 0.00042720904457382858, 0.00025458642630837858, 0.00021716579794883728, 0.00017046896391548216, 0.00028462553746066988, 0.00031544169178232551, 0.00027956772828474641, 0.00026375427842140198, 0.00023674372641835362, 0.00031233098707161844, 0.00033958363928832114, 0.00018505810294300318, 0.00039256873424164951, 0.00032653601374477148, 0.00027156781288795173, 0.00042058451799675822, 0.00021163679775781929, 0.00032492619357071817, 0.00030427056481130421, 0.00019017788872588426, 0.00027054155361838639, 0.00021321863459888846, 0.00018516751879360527, 0.00054906029254198074, 0.00020931012113578618, 0.00042994564864784479, 0.00044498383067548275, 0.0004487027763389051, 0.00034179160138592124, 0.00037791067734360695, 0.00018494232790544629, 0.00077628629514947534, 0.00046627115807496011, 0.00026508563314564526, 0.00045960859279148281, 0.00052879872964695096, 0.00029429839923977852, 8.0916113802231848e-05, 0.00021501857554540038, 0.00046669828589074314, 0.00047833129065111279, 0.00027463093283586204, 0.00022324203746393323, 0.00057552539510652423, 0.00039445544825866818, 0.00029068780713714659, 0.00028901110636070371, 0.0002814542967826128, 0.00013116770423948765, 0.00015947336214594543, 0.00026481150416657329, 0.00014984725567046553, 0.00016084381786640733, 0.0002118394331773743, 0.00017767041572369635, 0.00011786562390625477, 0.00024448503972962499, 0.00052792084170505404, 0.0002142653102055192, 0.0001482400402892381, 0.00055599358165636659, 0.0002920264087151736, 0.0001930009457282722, 0.00029452148010022938, 0.00042598848813213408, 0.00044537126086652279, 0.00022826841450296342, } };
const TfArray<96, int> quant6_zero = { 96, { 0,0,0,0,0,0,0,0,0,0,0,0,0,0,0,0,0,0,0,0,0,0,0,0,0,0,0,0,0,0,0,0,0,0,0,0,0,0,0,0,0,0,0,0,0,0,0,0,0,0,0,0,0,0,0,0,0,0,0,0,0,0,0,0,0,0,0,0,0,0,0,0,0,0,0,0,0,0,0,0,0,0,0,0,0,0,0,0,0,0,0,0,0,0,0,0 } };
const TfLiteAffineQuantization quant6 = { (TfLiteFloatArray*)&quant6_scale, (TfLiteIntArray*)&quant6_zero, 0 };
const MODEL_SECTION(EI_MODEL_SECTION) ALIGN(16) int8_t tensor_data7[96*1*1*16] = { 
  /* [0][0][][] */ -41,76,11,-127,-28,-32,4,-23,-15,12,-10,52,12,-23,10,24, 
  /* [1][0][][] */ -15,10,-54,-12,-31,-15,35,-101,51,63,-61,16,-15,14,36,-127, 
  /* [2][0][][] */ 11,-11,-28,50,52,20,-28,-61,127,-35,-21,-21,-44,98,-66,54, 
  /* [3][0][][] */ 35,-34,39,-77,21,16,-58,-7,127,50,48,63,32,15,11,93, 
  /* [4][0][][] */ -59,37,19,59,27,-26,-23,32,14,-11,-6,-61,-127,-14,20,57, 
  /* [5][0][][] */ -21,38,127,4,50,99,-69,73,-72,60,8,-93,-2,-14,-102,57, 
  /* [6][0][][] */ 23,-54,124,-127,28,21,-49,50,-61,-73,23,-36,-13,71,-13,32, 
  /* [7][0][][] */ 24,68,55,-71,93,4,-32,-49,120,127,-66,52,50,-9,69,24, 
  /* [8][0][][] */ 9,-83,6,-87,14,-51,41,-57,23,28,62,-17,-2,127,70,57, 
  /* [9][0][][] */ 5,-48,-2,118,21,-1,33,-53,-43,127,11,-15,-17,-49,-10,-1, 
  /* [10][0][][] */ -11,55,-77,-127,10,-24,18,45,29,-48,-14,-25,-26,-40,0,61, 
  /* [11][0][][] */ -12,-2,29,1,65,-30,82,-45,-70,26,-27,28,1,127,-72,-47, 
  /* [12][0][][] */ 93,58,-82,-29,33,-71,-5,29,10,114,-127,31,-16,118,-114,63, 
  /* [13][0][][] */ -18,6,-27,21,3,-127,22,16,-6,-19,-2,0,5,0,7,8, 
  /* [14][0][][] */ 4,3,70,-11,57,47,-127,-80,-3,-11,55,58,19,-78,-27,-9, 
  /* [15][0][][] */ -23,60,-30,-21,16,21,127,88,-42,22,103,-42,13,80,0,58, 
  /* [16][0][][] */ 28,66,123,127,-2,2,88,51,-73,-8,-78,16,30,41,-20,-50, 
  /* [17][0][][] */ -33,-105,-25,18,-75,-37,-35,14,-127,-40,1,-55,-10,37,50,-37, 
  /* [18][0][][] */ -1,14,16,31,13,19,-13,-23,73,41,5,-27,-16,127,77,-5, 
  /* [19][0][][] */ 19,-35,38,35,106,11,-102,-57,-77,-105,-6,-127,-83,-49,4,-17, 
  /* [20][0][][] */ 68,-35,-55,-31,0,-127,53,45,-50,4,-100,-43,9,23,41,15, 
  /* [21][0][][] */ 113,4,106,-21,24,10,-28,91,-3,-127,64,59,8,97,16,126, 
  /* [22][0][][] */ -11,28,-60,102,-57,-19,127,72,-33,13,-33,22,-22,7,59,12, 
  /* [23][0][][] */ 81,-10,126,-102,105,-36,-34,50,28,-12,47,-36,32,-44,-127,-8, 
  /* [24][0][][] */ -116,50,41,-27,18,116,-11,-15,-9,-4,127,0,-66,39,80,-32, 
  /* [25][0][][] */ 37,25,16,21,20,-4,84,-54,-6,-127,-20,-23,-22,-25,27,26, 
  /* [26][0][][] */ -47,1,-23,-7,-68,-47,-36,-30,-127,-66,-11,-47,14,119,-46,54, 
  /* [27][0][][] */ -4,26,13,53,34,-30,-8,-36,50,2,-29,-12,5,127,-20,5, 
  /* [28][0][][] */ -32,68,47,82,119,6,39,46,-67,-2,-1,-25,46,127,52,-46, 
  /* [29][0][][] */ -4,16,5,9,26,-4,13,14,-18,-1,7,-127,-1,-44,-5,17, 
  /* [30][0][][] */ -26,72,-28,62,-27,9,9,-127,-18,61,5,31,57,21,73,91, 
  /* [31][0][][] */ -67,-23,34,-51,21,28,-69,-127,67,98,-19,-122,-41,-18,19,14, 
  /* [32][0][][] */ -127,-62,26,39,73,76,-29,-11,-4,-43,-87,26,103,5,72,84, 
  /* [33][0][][] */ -27,-52,-21,-11,-79,3,-79,15,52,24,1,-47,28,-94,127,17, 
  /* [34][0][][] */ 47,-24,70,39,48,14,-20,107,-84,-58,63,13,-2,12,-9,127, 
  /* [35][0][][] */ -52,66,-84,0,-15,-21,41,-127,54,55,-73,-6,19,-11,67,-105, 
  /* [36][0][][] */ -2,21,-8,34,17,32,127,25,-51,-3,-49,-17,-42,49,-85,-12, 
  /* [37][0][][] */ 2,-4,33,-93,-18,-15,-65,-37,-113,-21,0,-28,22,-127,92,-69, 
  /* [38][0][][] */ 22,69,12,-75,115,4,-23,-48,127,78,-19,37,6,-3,25,10, 
  /* [39][0][][] */ -25,66,-22,-127,-12,-12,-25,48,34,-94,-41,-33,8,85,59,46, 
  /* [40][0][][] */ -10,-72,67,-83,-8,-47,-21,-57,-112,-27,-19,-101,-21,-103,87,-127, 
  /* [41][0][][] */ -10,-49,-24,-31,-2,-50,32,3,-46,-6,-57,-15,-127,38,50,18, 
  /* [42][0][][] */ 124,127,-55,-23,-60,-60,-34,-73,12,19,71,-53,-36,23,101,-70, 
  /* [43][0][][] */ -1,91,-52,2,54,-21,49,-24,60,51,-20,0,31,-127,-50,-10, 
  /* [44][0][][] */ -18,7,6,-34,75,-7,-120,-127,-20,5,22,46,-29,-24,62,-38, 
  /* [45][0][][] */ -26,69,-127,-54,48,-85,-19,-66,32,34,-17,-88,44,-56,79,-5, 
  /* [46][0][][] */ 13,1,-15,-92,-4,9,18,-32,-116,-3,11,-7,-17,-127,60,-15, 
  /* [47][0][][] */ 19,41,19,-18,127,-11,-19,23,-49,36,-2,24,7,8,111,-17, 
  /* [48][0][][] */ -127,-90,-11,57,96,47,-45,-37,26,1,-90,81,103,-4,94,44, 
  /* [49][0][][] */ 37,60,79,35,108,-30,37,41,-127,-45,-69,-97,13,87,21,-31, 
  /* [50][0][][] */ 40,40,-127,-14,71,-105,-37,-30,-39,-65,-10,-9,65,-13,2,35, 
  /* [51][0][][] */ -11,15,33,67,66,0,6,24,-102,47,47,-127,37,-95,-35,80, 
  /* [52][0][][] */ -9,77,-40,73,15,-2,40,22,52,127,-45,-71,82,125,67,7, 
  /* [53][0][][] */ -39,-53,-8,-45,-119,-17,-122,21,24,28,-19,-94,74,-127,120,-18, 
  /* [54][0][][] */ 57,-40,-43,30,127,81,-127,-38,-42,-7,-63,-38,-18,-78,-25,-28, 
  /* [55][0][][] */ 37,-11,-14,7,32,-23,-74,-127,-22,-69,-59,43,10,-44,5,8, 
  /* [56][0][][] */ -20,1,24,-48,-24,-67,-114,69,-28,127,-26,-33,32,9,9,-13, 
  /* [57][0][][] */ -4,14,-33,-24,-32,-21,127,106,-24,32,-8,5,36,23,98,1, 
  /* [58][0][][] */ 40,-3,-125,61,94,105,-33,67,-127,30,19,-16,-34,41,12,-44, 
  /* [59][0][][] */ -105,62,127,12,-74,-50,116,126,21,0,35,-10,27,19,71,-15, 
  /* [60][0][][] */ 22,-4,-31,-9,7,-127,-7,6,-10,-26,-12,-40,31,-12,17,-2, 
  /* [61][0][][] */ 42,-16,25,127,93,17,24,17,-112,1,23,43,-18,6,26,-48, 
  /* [62][0][][] */ -50,109,44,-65,-35,-40,-99,61,-24,-48,-127,-69,6,-67,-57,-50, 
  /* [63][0][][] */ -44,20,-26,127,-65,7,-63,-27,-41,-34,-6,-51,1,55,33,51, 
  /* [64][0][][] */ -13,4,33,42,-12,11,-7,80,63,-11,-15,-33,10,-127,37,-17, 
  /* [65][0][][] */ -18,-13,12,-127,46,-31,67,-21,4,35,25,-84,52,-47,3,-47, 
  /* [66][0][][] */ 48,-9,94,-16,11,24,-76,127,35,-86,94,60,36,123,-27,71, 
  /* [67][0][][] */ -7,29,-16,-127,-14,-12,-52,36,78,-106,-26,-11,7,88,93,40, 
  /* [68][0][][] */ -25,54,127,21,35,0,3,4,-10,-13,-29,-21,7,-37,57,-18, 
  /* [69][0][][] */ 127,76,-16,-2,-34,-52,-7,-43,9,-5,97,-56,-62,12,85,-66, 
  /* [70][0][][] */ 39,-8,-44,4,-12,21,72,127,-32,70,-47,4,9,60,-16,16, 
  /* [71][0][][] */ 2,-6,6,12,-6,-67,15,14,-47,19,-79,-8,-127,13,34,31, 
  /* [72][0][][] */ 3,7,-127,31,13,-36,41,88,-33,-15,11,-33,32,31,-16,-39, 
  /* [73][0][][] */ -29,13,23,-7,36,-41,-56,-127,26,-49,21,-41,-11,-51,39,-2, 
  /* [74][0][][] */ -7,57,51,127,18,-10,-98,87,-56,25,-54,39,75,-121,67,-125, 
  /* [75][0][][] */ -8,33,-32,1,5,-11,28,-15,97,19,-28,-39,22,127,-74,-40, 
  /* [76][0][][] */ 8,-2,-1,23,10,0,-4,57,10,-9,-11,-127,3,-6,1,23, 
  /* [77][0][][] */ -10,12,-18,127,-61,2,124,112,-19,24,-17,-16,-35,17,3,-9, 
  /* [78][0][][] */ 15,-3,41,-92,48,-12,-18,26,15,-43,-1,-41,-5,127,40,36, 
  /* [79][0][][] */ 12,-77,-41,-65,-92,23,26,-71,127,15,24,61,19,58,65,-48, 
  /* [80][0][][] */ -25,3,106,-127,25,-55,60,-92,-92,53,-61,-113,-7,126,73,-15, 
  /* [81][0][][] */ -34,34,-111,27,70,-127,5,44,-14,-46,59,-12,28,15,-5,2, 
  /* [82][0][][] */ 127,-18,12,15,38,-87,-22,22,-19,6,-59,17,120,5,6,48, 
  /* [83][0][][] */ -37,81,-107,-114,-37,-30,60,-107,28,30,-22,-127,18,55,56,105, 
  /* [84][0][][] */ -18,48,45,-29,4,21,36,-127,-19,62,-4,-32,32,19,31,-1, 
  /* [85][0][][] */ -101,108,42,-115,-72,-9,-22,-10,-51,-2,-85,3,7,-3,-127,-59, 
  /* [86][0][][] */ 5,-8,-46,6,-32,-44,127,13,-7,-35,-32,-18,-9,24,82,-7, 
  /* [87][0][][] */ -33,-40,-2,-127,31,-19,58,-24,3,17,13,-102,-38,-1,46,-36, 
  /* [88][0][][] */ 84,-29,90,19,57,-62,-7,17,-43,57,-127,-49,51,3,9,-51, 
  /* [89][0][][] */ 19,-14,-27,-43,33,2,-56,-15,-32,17,63,-53,127,-12,18,-40, 
  /* [90][0][][] */ -14,-59,44,-55,51,21,-35,60,32,-65,-18,-3,31,115,-3,-127, 
  /* [91][0][][] */ -120,36,-39,-114,-6,-76,-127,-99,31,69,12,-112,-62,26,61,49, 
  /* [92][0][][] */ -28,9,41,26,9,-127,22,9,10,-26,5,-8,-4,-15,46,12, 
  /* [93][0][][] */ 54,-56,127,0,-100,87,57,-22,-17,61,-78,-29,-46,15,42,16, 
  /* [94][0][][] */ 44,-18,-23,-5,36,-23,3,2,2,-7,20,-32,127,-15,13,-26, 
  /* [95][0][][] */ 127,37,20,34,-68,-11,-83,6,-21,-16,86,-1,-40,66,88,-47, 
};
const TfArray<4, int> tensor_dimension7 = { 4, { 96,1,1,16 } };
const TfArray<96, float> quant7_scale = { 96, { 0.0010736914118751884, 0.0012130849063396454, 0.00077498448081314564, 0.0012671711156144738, 0.00094674620777368546, 0.001077020657248795, 0.00071135902544483542, 0.00071411370299756527, 0.00087071978487074375, 0.0012137818848714232, 0.0004156137874815613, 0.000745191122405231, 0.00060898414812982082, 0.0032909575384110212, 0.00060375477187335491, 0.00044758580042980611, 0.00053735653636977077, 0.00071635545464232564, 0.0012700754450634122, 0.001002177014015615, 0.00033637267188169062, 0.00023738267191220075, 0.00041989772580564022, 0.00029205079772509634, 0.00047480998910032213, 0.0011689035454764962, 0.0014492439804598689, 0.0010899091139435768, 0.00065000914037227631, 0.0011407746933400631, 0.00067982118343934417, 0.00057989702327176929, 0.0004552026221062988, 0.00076003448339179158, 0.00084232277004048228, 0.00074652861803770065, 0.00070430204505100846, 0.00063217588467523456, 0.00083401624578982592, 0.00090678891865536571, 0.00049415993271395564, 0.0010482748039066792, 0.00087194785010069609, 0.00072516646469011903, 0.0011230852687731385, 0.00056513294111937284, 0.00086764921434223652, 0.00081249256618320942, 0.00050783128244802356, 0.0007224261062219739, 0.00056935689644888043, 0.00049445213517174125, 0.0014661536552011967, 0.00055892003001645207, 0.0011480821995064616, 0.0011882386170327663, 0.0011981693096458912, 0.00091268483083695173, 0.0010091334115713835, 0.00049385079182684422, 0.002072914270684123, 0.0012450821232050657, 0.0007078571361489594, 0.0012272910680621862, 0.0014120491687208414, 0.00078586390009149909, 0.00021606999507639557, 0.00057416327763348818, 0.0012462226441130042, 0.0012772862100973725, 0.0007333459216170013, 0.00059612235054373741, 0.001536823227070272, 0.0010533129097893834, 0.00077622255776077509, 0.00077174522448331118, 0.00075156637467443943, 0.00035025662509724498, 0.00042584110633470118, 0.00070712517481297255, 0.00040013657417148352, 0.00042950062197633088, 0.00056567403953522444, 0.00047443262883462012, 0.00031473612762056291, 0.0006528474623337388, 0.0014097050298005342, 0.0005721518537029624, 0.00039584480691701174, 0.0014846675330772996, 0.00077979703200981021, 0.00051536969840526581, 0.00078645959729328752, 0.0011375154135748744, 0.0011892731999978423, 0.00060954428045079112, } };
const TfLiteAffineQuantization quant7 = { (TfLiteFloatArray*)&quant7_scale, (TfLiteIntArray*)&g0::quant6_zero, 0 };
const MODEL_SECTION(EI_MODEL_SECTION) ALIGN(16) int32_t tensor_data8[16] = { -4274, 20799, -19494, 1656, 5235, 18771, 23717, -62611, 13000, 16620, 23978, 22397, -2244, 16065, -7085, 18744, };
const TfArray<1, int> tensor_dimension8 = { 1, { 16 } };
const TfArray<16, float> quant8_scale = { 16, { 0.00076296715997159481, 0.00045019882963970304, 0.0002521613787394017, 0.00027324867551214993, 0.00038244450115598738, 0.00033754383912310004, 0.00042327749542891979, 0.00031734752701595426, 0.00035506201675161719, 0.00025013097911141813, 0.00073663570219650865, 0.00046960750478319824, 0.00037325927405618131, 0.00026618363335728645, 0.00051018327940255404, 0.00054599199211224914, } };
const TfArray<16, int> quant8_zero = { 16, { 0,0,0,0,0,0,0,0,0,0,0,0,0,0,0,0 } };
const TfLiteAffineQuantization quant8 = { (TfLiteFloatArray*)&quant8_scale, (TfLiteIntArray*)&quant8_zero, 0 };
const MODEL_SECTION(EI_MODEL_SECTION) ALIGN(16) int8_t tensor_data9[16*1*1*96] = { 
  /* [0][0][][] */ -30,-33,18,-38,29,-31,-47,4,-8,-2,3,16,-11,-7,-49,5,0,4,-3,17,25,15,-2,18,42,-7,10,127,25,-36,40,-4,3,-3,-8,15,-14,-16,-67,14,0,22,15,56,9,22,19,9,49,-19,3,17,27,-18,-29,50,-8,-6,-39,-49,-13,29,8,-19,-25,-33,-24,26,13,61,3,-5,-15,-15,20,-6,-44,36,8,-4,9,-25,34,14,-10,-33,-32,-68,-5,-10,13,-17,57,-24,-49,-45, 
  /* [1][0][][] */ 19,-84,-67,-26,127,-34,64,67,2,-88,-54,7,26,-37,-4,45,-32,12,30,38,-29,59,-14,-36,6,30,-25,-77,47,-14,-88,41,-4,22,-13,40,8,-7,6,8,14,46,-47,15,-37,29,10,39,58,-50,26,-58,-26,18,51,3,-59,3,-52,-32,-11,-3,19,-32,-69,104,6,-22,-4,18,-4,28,40,-79,-5,15,75,-28,35,-19,12,4,-6,-31,-62,5,-24,56,17,-22,-9,-18,21,-29,33,59, 
  /* [2][0][][] */ -5,55,-91,-19,64,117,83,-5,11,-87,6,6,-5,29,21,-7,8,-4,-33,56,27,-103,79,16,-11,29,22,-41,15,8,38,-53,20,65,-9,2,-127,-69,63,58,5,-26,15,3,38,23,7,23,-16,30,-34,21,72,9,-15,74,5,18,8,7,47,-5,61,-46,7,-25,-28,22,-31,-45,-10,-21,-40,-79,0,66,101,56,26,26,13,-23,36,30,-21,27,14,38,20,51,10,-24,4,-4,-65,22, 
  /* [3][0][][] */ 49,-18,91,-21,15,12,35,-1,7,-78,35,-50,-27,7,38,108,9,19,15,-50,108,-14,34,39,41,-37,3,-5,58,45,-47,104,-87,35,10,-29,-44,-55,-16,38,-5,-21,79,36,23,87,-23,-99,-55,-37,-61,19,-26,-61,-36,3,-42,80,36,36,27,66,1,-44,44,71,-20,8,2,11,-23,-71,64,-21,42,-50,-46,7,52,42,8,-56,50,-16,-20,0,20,27,24,38,18,-13,37,127,30,-54, 
  /* [4][0][][] */ 4,-47,8,-13,127,24,7,-34,-56,-81,-28,-32,-49,8,-3,42,43,-80,-46,89,-9,-5,23,16,24,-24,19,-59,37,-2,35,-20,126,-1,-41,-13,18,-18,2,35,8,31,-28,-2,-14,-7,-10,-15,52,26,-25,-6,-36,-31,-27,-36,21,-22,-74,19,-25,39,83,6,48,70,-6,-7,-28,27,42,67,25,-70,9,-5,38,50,83,-50,-9,-41,-13,-14,-67,-49,25,71,-21,28,-31,-103,28,43,-19,-45, 
  /* [5][0][][] */ -1,-4,-28,-6,-5,-7,83,-53,-31,-69,8,17,-4,28,-1,1,-6,6,2,-14,20,-57,-44,87,23,-32,20,-110,6,38,3,52,-8,35,-6,-52,-3,3,7,49,15,3,24,14,2,34,-5,-37,-17,-12,4,-27,-17,-21,-41,-64,-23,10,-37,21,76,-12,47,35,-18,46,-4,72,15,74,1,22,5,18,17,52,18,8,33,17,-22,1,29,23,-12,14,-15,127,13,54,-12,-18,11,35,-52,10, 
  /* [6][0][][] */ 25,-53,40,-19,-27,-29,-9,42,-19,20,-1,-64,-33,-13,-44,43,10,-9,8,-17,-32,89,26,-15,7,2,-50,2,-21,-7,50,-25,47,-13,47,7,26,-9,-26,-69,-61,60,18,-43,14,-68,-19,48,-42,-7,4,50,10,-63,17,-15,2,-54,20,-2,-3,67,-4,-59,20,-21,2,-39,-16,24,99,-5,-26,6,1,7,-127,2,8,4,46,42,20,1,-20,13,21,-5,-13,-17,37,-12,-24,-35,-24,-7, 
  /* [7][0][][] */ -6,127,73,30,102,78,8,21,-23,19,36,-24,-29,23,9,60,17,-47,15,6,45,29,74,-21,-42,13,-8,24,8,-24,26,8,39,-15,-27,2,74,42,-19,62,-82,13,16,-23,-24,-58,28,18,-44,-28,11,34,48,-40,26,51,63,2,31,-20,9,-19,-51,22,-47,45,-17,-71,-36,-14,7,60,-26,-26,-18,-33,-6,24,39,-6,-23,-72,-16,-6,-3,86,29,-21,-41,1,-8,20,-66,-35,22,44, 
  /* [8][0][][] */ -6,-19,9,34,-107,-13,66,-14,30,37,43,43,-23,-1,15,-15,-39,40,-7,0,-60,-32,-127,80,21,-33,44,-44,11,-3,-49,68,50,-11,0,9,-30,-49,34,17,63,-26,56,41,-17,17,29,-4,-101,-1,3,17,-92,-20,-24,27,-24,-18,-111,-1,16,-17,-15,-5,0,79,10,-60,60,-34,-12,-33,90,48,47,34,9,-37,-21,10,-74,36,-16,-12,21,18,74,57,30,-15,21,3,31,-8,20,5, 
  /* [9][0][][] */ -4,-68,-40,5,44,76,30,-40,33,-71,81,83,-22,25,65,-126,9,-18,-23,6,-30,-109,28,14,-39,-24,7,6,-36,27,-9,8,-24,41,-90,8,-55,7,29,46,26,-63,-20,75,9,9,-54,-32,20,41,-19,-40,54,57,-30,-56,-3,91,-33,15,53,-67,-16,127,-88,-27,-14,-10,7,-14,-53,-89,61,-9,-16,35,79,-42,49,-12,-18,6,23,15,-11,-26,37,-4,24,2,-73,58,-37,-15,-20,-13, 
  /* [10][0][][] */ -40,-18,-34,-35,-17,-4,73,-39,25,6,26,42,26,-9,2,7,-16,18,-29,-16,-1,-12,4,27,0,-15,22,-127,26,-23,27,-20,12,19,-7,-4,-24,17,21,14,45,-13,23,-12,20,29,20,1,4,24,-16,-26,-39,-11,-18,-52,-2,1,-26,-26,10,-5,29,5,-31,78,-17,-21,21,-22,-11,-18,-23,4,43,42,37,31,0,28,-20,25,22,27,-8,-18,-25,106,0,4,9,-6,34,-5,32,-36, 
  /* [11][0][][] */ -119,35,-26,23,2,-33,39,-19,-66,-53,24,42,9,36,-36,-11,79,15,-85,-71,44,-47,-26,29,118,-35,89,-14,-31,48,-59,65,-12,77,-12,-30,-23,-29,58,34,21,14,26,57,113,102,66,31,42,46,-23,33,2,-51,45,-44,-110,-15,-64,-49,15,-38,31,34,4,-12,56,-8,46,30,-17,37,-31,12,52,5,-6,109,-103,93,-31,-6,-33,-93,127,41,66,-7,50,91,-31,-123,-10,88,-58,23, 
  /* [12][0][][] */ -27,-12,-65,-7,38,68,62,-25,-26,-14,36,31,8,1,10,-35,-18,-13,11,-39,16,-50,-72,77,-42,5,-7,69,-3,39,-41,43,-16,58,21,16,-37,-28,52,27,30,-2,3,24,-5,31,48,-1,-9,6,-13,-20,-37,-11,1,-52,2,4,-19,22,1,-46,25,73,30,-70,12,58,0,-127,-18,63,-1,11,5,72,40,-4,28,10,-5,0,-14,9,12,-39,43,-43,13,33,4,6,-26,38,-41,59, 
  /* [13][0][][] */ -68,56,20,-6,-86,5,-34,32,-42,-9,6,26,69,14,-52,-2,-11,7,-3,-10,65,37,90,-78,6,20,-36,14,3,-37,-1,-85,-97,-18,37,1,39,50,27,-55,-108,66,16,2,71,-39,10,47,12,-30,13,81,83,-95,125,-15,24,46,81,9,7,52,-96,2,-15,-26,-1,3,-3,19,43,-103,-3,-27,-127,5,-28,44,-53,-21,103,-81,5,-33,34,-23,119,-33,-46,-28,0,54,1,-80,-19,31, 
  /* [14][0][][] */ -16,35,-27,-58,62,-30,-68,27,-108,-17,-7,-11,-14,-65,-107,-63,-100,-22,52,31,9,49,14,-122,11,33,-72,-11,0,-39,4,-53,-44,-101,6,32,-3,1,-49,-11,-19,65,-58,-37,-46,-39,15,50,118,-40,41,-6,31,49,-122,24,-24,25,-127,20,-14,60,-2,28,10,37,0,-26,-44,37,77,8,52,-12,-36,55,21,-65,-21,-81,33,-5,-6,35,28,-105,-63,-1,-40,2,12,83,16,0,26,-23, 
  /* [15][0][][] */ -28,-60,-13,-9,13,-6,-26,-56,-44,3,-9,-50,15,-14,47,-10,-80,1,-35,34,-47,48,-74,-25,48,10,-21,-14,-14,-22,40,-70,4,-26,-3,23,-9,5,-126,15,23,-49,6,16,-31,-49,24,19,52,-20,3,-127,-11,37,-20,10,6,-39,-14,40,-17,12,20,-23,6,14,16,-20,-9,52,7,14,-24,-4,19,-8,-25,10,0,10,-10,63,-27,51,3,-49,-48,-21,-41,26,-1,44,-33,-8,7,-43, 
};
const TfArray<4, int> tensor_dimension9 = { 4, { 16,1,1,96 } };
const TfArray<16, float> quant9_scale = { 16, { 0.032426103949546814, 0.019133450463414192, 0.010716858319938183, 0.011613068170845509, 0.016253890469670296, 0.014345613308250904, 0.017989292740821838, 0.013487269170582294, 0.015090134926140308, 0.010630566626787186, 0.03130701556801796, 0.019958319142460823, 0.015863519161939621, 0.011312804184854031, 0.021682789549231529, 0.023204660043120384, } };
const TfLiteAffineQuantization quant9 = { (TfLiteFloatArray*)&quant9_scale, (TfLiteIntArray*)&g0::quant8_zero, 0 };
const MODEL_SECTION(EI_MODEL_SECTION) ALIGN(16) int32_t tensor_data10[96] = { 24312, 58646, -732, 272, 18282, -3260, -127, -4212, 7914, 10925, -6599, -1016, 2030, -359, 4987, -9777, -3560, -130, 119, 11275, -9761, 19224, -5282, 10566, 30972, -1607, -2743, 18292, 16556, -19789, 222, 20483, 23011, -9533, 2434, 304, 1489, 1278, 2657, -6922, -4060, -3500, -3018, 200, 32255, -3450, 13066, -2653, -14416, 1385, -441, 2450, -3304, 22067, -3708, 15297, 21016, -272, 49791, 1460, -11785, -1426, 2423, -7, 562, 16319, -2377, -10433, -3255, 2729, -1297, -5002, 1119, -283, -2459, -8368, -1297, -1926, 49132, -7908, -6509, -10420, -984, 650, 74065, -17579, -7157, -28036, -6061, 10392, -965, 33308, 237, -4633, -2916, 188, };
const TfArray<96, float> quant10_scale = { 96, { 0.00010076936450786889, 9.838015103014186e-05, 0.00013753847451880574, 0.00019453199638519436, 0.0001928974234033376, 0.00025468476815149188, 5.2097133448114619e-05, 0.00010510540596442297, 0.00024392780323978513, 0.00024338842194993049, 0.00027919450076296926, 0.00011826741683762521, 0.00024985626805573702, 0.00019646022701635957, 0.0003805041778832674, 0.00013175042113289237, 0.0002380608202656731, 0.00019404974591452628, 0.00023956707445904613, 0.00010367295908508822, 8.0624166002962738e-05, 5.9101035731146112e-05, 0.00014018463843967766, 6.4331063185818493e-05, 7.9890633060131222e-05, 0.00011653370165731758, 0.000153252316522412, 0.00017510840552859008, 8.305707888212055e-05, 0.0004927455447614193, 0.00033843782148323953, 0.00021052554075140506, 9.7719799668993801e-05, 0.00016331432561855763, 0.0002795918844640255, 0.0004232779610902071, 0.00050792819820344448, 0.00024159044551197439, 0.00021470912906806916, 0.00010603235568851233, 0.00022323289886116982, 0.0002364064275752753, 0.00036404083948582411, 0.00011042950791306794, 0.00032257050042971969, 9.9856450106017292e-05, 9.1586902271956205e-05, 0.00022283729049377143, 0.00079957116395235062, 0.00010594604100333527, 0.00085173372644931078, 0.00015036495460662991, 0.00018440194253344089, 0.00013262082939036191, 0.00022813199029769748, 0.00011458726658020169, 0.00013568073336500674, 0.00046720702084712684, 3.7189591239439324e-05, 0.00018250971334055066, 0.00028022151673212647, 0.00037927558878436685, 0.00012789829634130001, 0.00018007669132202864, 0.00012878839334007353, 0.00011237944272579625, 0.00025172843015752733, 0.00020747275266330689, 0.0002173363754991442, 0.00014952977653592825, 0.00022495372104458511, 9.6609437605366111e-05, 0.00028123916126787663, 0.00013261435378808528, 0.0002985493338201195, 0.00022782111773267388, 0.00011161856673425063, 7.6604323112405837e-05, 5.296203016769141e-05, 0.00017620365542825311, 0.00025356540572829545, 0.00022347403864841908, 0.00017797861073631793, 0.00030580730526708066, 4.6883316827006638e-05, 8.6231244495138526e-05, 7.9370664025191218e-05, 0.00047782642650417984, 0.00029962873668409884, 0.00013367603241931647, 0.00037580259959213436, 3.6069453926756978e-05, 0.000132240034872666, 0.00010986978304572403, 0.00031425908673554659, 0.00024655341985635459, } };
const TfLiteAffineQuantization quant10 = { (TfLiteFloatArray*)&quant10_scale, (TfLiteIntArray*)&g0::quant6_zero, 0 };
const MODEL_SECTION(EI_MODEL_SECTION) ALIGN(16) int8_t tensor_data11[1*3*3*96] = { 
  /* [0][0][][] */ -45,-71,-7,127,21,74,105,-55,-18,-21,-14,-5,-31,1,41,5,-20,-40,23,19,9,-127,127,17,-96,7,54,-32,-127,-127,39,25,11,42,57,-22,-36,-11,23,-19,-20,27,-113,85,24,-74,36,48,-17,54,-18,16,12,-8,26,53,-89,-49,-68,-20,-5,2,12,46,65,-27,75,12,-8,16,20,127,24,21,37,7,-8,16,127,0,-15,12,-22,18,124,30,-88,-15,-3,-32,-18,-48,4,-21,-17,29, 127,-125,71,103,-44,127,56,-104,62,0,-12,127,127,-94,-12,23,8,127,122,-104,127,-68,82,76,-126,-116,-71,-33,-52,45,-58,-23,-95,63,-127,-82,-42,-16,-53,64,0,127,127,84,-57,-116,-114,-51,-15,-127,52,78,63,-36,49,79,-49,43,-89,-119,-37,-39,-59,69,69,-62,30,28,-79,31,-16,87,124,127,16,24,7,59,-32,64,71,127,127,-24,-10,93,-117,127,-125,-103,0,-127,-93,-127,-37,105, -77,-19,33,-81,12,-17,126,-3,74,-35,-23,42,-22,5,-10,-2,-16,-18,4,-2,-31,-95,32,16,-127,92,-5,-57,118,48,-13,6,-4,23,13,-33,-14,32,15,12,30,15,-124,79,12,-25,29,20,-13,14,-11,6,0,-5,14,18,-68,4,-54,53,4,44,35,0,-7,-41,-26,25,5,4,1,45,12,-22,0,9,-7,-10,-85,9,-20,-21,-11,4,-110,24,-49,-22,-54,31,-28,-38,30,-28,-16,5, 
  /* [0][1][][] */ -70,-70,68,-37,-48,86,15,127,-53,-22,3,-121,22,-116,82,30,-9,-60,-19,84,53,-58,50,60,-96,-2,127,-22,-26,64,123,-91,-127,85,-88,-54,-38,31,-27,89,-54,-26,-7,53,-50,127,-25,68,16,98,26,-6,31,-57,40,34,127,125,-73,-95,127,-33,-39,127,69,-38,-18,2,127,37,127,88,-39,102,-1,18,13,13,-34,8,-46,122,-74,105,7,37,-58,31,82,-127,-34,-5,127,-60,-24,0, 62,127,55,-120,127,77,97,38,-127,127,127,-42,-73,-127,-127,127,127,-64,-127,-50,120,82,-119,127,-87,-79,-50,127,-122,109,-127,-127,-90,127,108,127,127,-127,-100,127,-60,-96,106,-127,-127,-32,-127,-127,127,-112,95,40,127,127,127,-127,103,-127,-127,127,21,-81,-127,-98,-127,127,-127,127,-120,-127,-105,-87,-127,-76,127,127,-127,127,-80,127,127,29,-39,-127,62,127,101,46,127,12,127,11,-75,40,127,-127, -59,-13,-46,35,-56,-85,74,-15,15,-37,-22,105,-2,103,13,15,-2,59,-5,119,2,-84,-30,18,-85,113,-79,-20,-77,-18,18,-61,-79,48,6,-16,-30,41,-64,43,127,0,-41,35,-45,-56,10,48,10,117,-7,5,-17,-76,23,20,93,-1,-13,24,-31,127,88,-51,-41,11,36,-4,-78,114,-17,-83,2,-51,-11,-12,30,12,76,-37,-70,-37,54,15,-50,-5,67,23,19,60,-44,14,-49,97,-26,-1, 
  /* [0][2][][] */ -69,3,-7,-18,11,-42,124,26,48,-31,-30,-6,14,21,-27,4,-10,66,10,-2,-67,-91,12,-7,-31,-55,35,-70,81,41,28,25,23,6,-16,-49,-10,31,1,15,-24,4,-74,108,5,42,10,34,-16,-26,15,-23,21,-3,20,14,-72,28,-36,7,23,5,-15,-5,-2,-48,-40,23,-19,16,29,26,10,-19,39,8,17,6,-77,-13,-9,-13,19,14,-127,21,9,-43,-55,-62,-32,-48,15,66,-22,-6, 119,34,-127,-35,-73,-23,63,36,-67,-34,-13,-106,-85,119,-15,46,3,-51,-5,-127,93,-59,-32,5,-113,127,-55,21,-40,-19,-8,-11,-58,19,27,7,-24,-34,127,77,9,-6,57,-36,-38,91,-66,-49,-33,-3,-127,-127,-47,-27,16,37,-70,-4,-5,38,-2,-17,15,-46,-55,32,67,-15,111,108,-19,-69,10,-54,11,7,102,3,53,15,13,-106,-50,4,3,28,127,39,-62,33,-21,-107,44,89,-9,30, -55,11,-17,28,12,-64,-127,15,-12,-12,-14,23,12,-10,16,3,-5,-15,10,14,-52,-74,24,17,-9,-91,16,0,-61,-37,-4,12,41,-8,-8,-30,-41,2,44,-23,24,9,-53,-38,3,76,15,16,-10,-1,12,-9,23,1,9,-4,-63,-17,-28,-43,-9,13,87,-10,35,-5,-1,37,-3,13,5,22,-17,15,5,17,41,1,79,-10,4,-10,-7,-15,75,27,46,-38,54,37,-21,-66,-5,10,-18,-12, 
};
const TfArray<4, int> tensor_dimension11 = { 4, { 1,3,3,96 } };
const TfArray<96, float> quant11_scale = { 96, { 0.0042826980352401733, 0.004181156400591135, 0.0058453851379454136, 0.0082676094025373459, 0.0081981401890516281, 0.010824102908372879, 0.0022141281515359879, 0.0044669797644019127, 0.010366931557655334, 0.010344007983803749, 0.011865765787661076, 0.0050263651646673679, 0.010618891566991806, 0.0083495592698454857, 0.016171427443623543, 0.0055993925780057907, 0.010117584839463234, 0.0082471137866377831, 0.010181600227952003, 0.0044061006046831608, 0.0034265269059687853, 0.0025117939803749323, 0.0059578469954431057, 0.0027340701781213284, 0.0033953518141061068, 0.0049526821821928024, 0.0065132235176861286, 0.0074421069584786892, 0.0035299258306622505, 0.020941684022545815, 0.014383606612682343, 0.0089473351836204529, 0.0041530914604663849, 0.0069408584386110306, 0.011882655322551727, 0.01798931322991848, 0.021586949005723, 0.010267593897879124, 0.0091251377016305923, 0.0045063751749694347, 0.0094873979687690735, 0.010047272779047489, 0.015471735969185829, 0.0046932538971304893, 0.013709246180951595, 0.0042438991367816925, 0.0038924431428313255, 0.0094705848023295403, 0.033981774002313614, 0.0045027066953480244, 0.036198683083057404, 0.0063905105926096439, 0.0078370822593569756, 0.0056363851763308048, 0.0096956091001629829, 0.0048699588514864445, 0.0057664313353598118, 0.019856298342347145, 0.0015805575530976057, 0.007756662555038929, 0.011909414082765579, 0.016119211912155151, 0.005435677245259285, 0.0076532592065632343, 0.0054735066369175911, 0.0047761262394487858, 0.010698458179831505, 0.008817591704428196, 0.0092367958277463913, 0.0063550155609846115, 0.0095605328679084778, 0.0041059008799493313, 0.011952663771808147, 0.005636109970510006, 0.012688346207141876, 0.0096823973581194878, 0.0047437888570129871, 0.00325568369589746, 0.0022508862894028425, 0.0074886549264192581, 0.010776529088616371, 0.0094976462423801422, 0.00756409065797925, 0.012996810488402843, 0.0019925408996641636, 0.0036648279055953026, 0.003373253159224987, 0.020307622849941254, 0.012734221294522285, 0.005681231152266264, 0.015971610322594643, 0.0015329518355429173, 0.0056202015839517117, 0.0046694655902683735, 0.013356010429561138, 0.010478519834578037, } };
const TfLiteAffineQuantization quant11 = { (TfLiteFloatArray*)&quant11_scale, (TfLiteIntArray*)&g0::quant6_zero, 3 };
const MODEL_SECTION(EI_MODEL_SECTION) ALIGN(16) int32_t tensor_data12[96] = { 1893, 9425, 12776, 19724, 18835, -5484, -2095, 5106, 21724, -5129, 9625, 3206, 10828, 14012, 29461, 1864, 2887, 6954, 17218, 3829, -731, 2771, 11041, -1041, 2714, -76, 11621, 7986, 4688, 30754, 55674, 14212, 8463, -1035, 15316, 3122, 5759, 7289, 22239, -1472, 10595, 11397, 52921, -4003, 33831, 4536, 5074, 15250, 61236, 8774, -2704, 8961, -4072, -44, -2427, 8529, -301, 14252, 8437, 7041, 7678, 14553, 8136, 5936, 11487, 8912, 3998, -6006, 9760, -5096, 6819, 16521, 26725, 3988, -5052, -2976, 5214, 333, 2563, -1692, 15871, 14702, 5312, 19214, 3234, 0, 11469, 83203, 13687, 8950, 8416, 115, 4818, 8248, 3289, 9415, };
const TfArray<96, float> quant12_scale = { 96, { 0.00024063511227723211, 0.00015699224604759365, 0.00014107897004578263, 0.00011829585855593905, 0.00016464412328787148, 0.00020115352526772767, 0.00041137015796266496, 0.00028431852115318179, 0.00010586308053461835, 0.00027611738187260926, 0.00028328949701972306, 0.00027232890715822577, 0.00010845795623026788, 0.00016078258340712637, 8.0578523920848966e-05, 0.00028437329456210136, 0.00018556081340648234, 0.00016918862820602953, 0.00013240810949355364, 0.00028476162697188556, 0.00023371660790871829, 0.0002322487416677177, 0.00017547875177115202, 0.00051118113333359361, 0.00094485341105610132, 0.00039393347105942667, 0.00019278818217571825, 0.00017565538291819394, 0.000364157953299582, 0.00011271113908151165, 5.1133702072547749e-05, 0.00016688516188878566, 0.00019048916874453425, 0.00029087768052704632, 0.0001335415436187759, 0.00021247079712338746, 0.0001113618491217494, 0.00020880978263448924, 0.00011135299428133294, 0.00047465899842791259, 0.00016874694847501814, 0.00014053203631192446, 5.1358572818571702e-05, 0.00027182456688024104, 9.7576637926977128e-05, 0.00031554032466374338, 0.0003286422579549253, 0.00017605240282136947, 6.7854678491130471e-05, 0.00023924536071717739, 0.00011165109026478603, 0.00019383577455300838, 0.00027511609368957579, 0.00020232769020367414, 0.00044214408262632787, 0.00013871386181563139, 0.00020483133266679943, 0.00013382142060436308, 0.00026427773991599679, 0.00020169789786450565, 0.0002113946684403345, 9.5747243904042989e-05, 0.00017494620988145471, 0.00017341731290798634, 0.0002176387351937592, 0.00020328545360825956, 0.00030482368310913444, 0.00021323884720914066, 0.00017075354116968811, 0.00017693288100417703, 0.00017246135394088924, 0.00010359987936681136, 7.724419265286997e-05, 0.00027041792054660618, 0.00034239050000905991, 0.0004187557497061789, 0.00030941577279008925, 0.00029058090876787901, 0.00027937072445638478, 0.00020546992891468108, 0.00012976773723494262, 0.0001095500192604959, 0.000154866385855712, 0.00010347164061386138, 0.00038667395710945129, 0.00032209666096605361, 0.00020907085854560137, 4.5907370804343373e-05, 0.00010481364734005183, 0.00025246228324249387, 0.00015611268463544548, 0.00045765595859847963, 0.00028211611788719893, 0.00018541894678492099, 0.00030580628663301468, 0.00018108093354385346, } };
const TfLiteAffineQuantization quant12 = { (TfLiteFloatArray*)&quant12_scale, (TfLiteIntArray*)&g0::quant6_zero, 0 };
const MODEL_SECTION(EI_MODEL_SECTION) ALIGN(16) int8_t tensor_data13[96*1*1*16] = { 
  /* [0][0][][] */ 45,31,-24,64,67,53,-10,-8,85,45,-5,85,-24,-127,36,-16, 
  /* [1][0][][] */ 36,53,-31,-33,-28,-28,105,-127,-16,84,33,26,29,-79,27,53, 
  /* [2][0][][] */ -127,91,-66,-13,-5,82,-7,56,-71,58,122,-29,-59,-1,70,20, 
  /* [3][0][][] */ -31,51,24,-12,-17,13,52,57,-21,22,-76,-4,5,-27,-127,-109, 
  /* [4][0][][] */ -33,-70,65,43,-53,75,15,17,13,-34,-49,3,-15,88,-127,-75, 
  /* [5][0][][] */ -20,5,37,52,61,-5,2,7,-32,127,-22,-119,33,57,-94,-29, 
  /* [6][0][][] */ 5,6,-8,3,19,73,-69,-91,-27,-46,61,-49,127,-15,3,16, 
  /* [7][0][][] */ 4,-38,127,48,-32,-47,-22,-13,-76,35,-97,-77,1,-17,79,-6, 
  /* [8][0][][] */ -7,13,55,42,-7,78,-21,28,68,-8,112,-53,-17,-20,-56,-127, 
  /* [9][0][][] */ 6,-83,113,51,45,48,-84,24,80,-68,88,52,42,-22,-127,-24, 
  /* [10][0][][] */ -28,-99,-70,-42,-127,-5,12,96,52,78,70,-37,-72,16,88,6, 
  /* [11][0][][] */ 77,-43,25,-60,15,9,-112,-127,-1,-9,31,-24,30,-18,38,-22, 
  /* [12][0][][] */ -24,-13,-10,-13,-90,-44,-110,117,-79,-33,63,6,104,111,127,85, 
  /* [13][0][][] */ -54,-58,-36,57,7,-46,11,-127,127,51,31,-9,47,-5,94,30, 
  /* [14][0][][] */ 13,-42,47,51,-23,73,-4,127,22,43,-5,-18,30,71,-126,25, 
  /* [15][0][][] */ 43,-53,-10,89,33,-7,125,21,21,-127,50,-28,26,44,-13,-12, 
  /* [16][0][][] */ 41,-85,-53,10,14,-9,62,-89,89,33,79,-7,-67,111,127,108, 
  /* [17][0][][] */ -25,-62,33,46,30,83,13,-127,119,-23,-28,-25,1,12,-86,73, 
  /* [18][0][][] */ 20,48,-30,33,-69,-75,-13,32,-59,-70,-127,-52,-21,-101,58,-20, 
  /* [19][0][][] */ 59,-14,35,-40,21,-38,-107,127,40,-42,-2,59,22,56,43,1, 
  /* [20][0][][] */ 0,31,60,-84,11,-45,12,34,-24,-62,127,-63,-9,-42,-32,90, 
  /* [21][0][][] */ -100,-42,71,-58,1,110,-66,-8,-23,127,67,73,-53,-24,1,-76, 
  /* [22][0][][] */ -23,-39,58,10,59,-67,29,3,-127,27,-21,-40,-47,18,91,-74, 
  /* [23][0][][] */ 26,64,22,-22,1,40,-18,-10,-19,-12,23,-15,127,-13,-29,-33, 
  /* [24][0][][] */ -9,-16,0,-30,2,-16,33,14,-13,16,-17,-127,28,-41,24,7, 
  /* [25][0][][] */ -127,56,-2,-46,16,-59,-9,-43,-57,1,10,-23,22,-41,-14,-31, 
  /* [26][0][][] */ 58,-72,49,-82,83,-11,16,-43,88,-8,60,-52,-8,44,127,59, 
  /* [27][0][][] */ 112,-12,45,-45,-36,-15,-25,-51,-26,34,-127,11,25,-50,-16,58, 
  /* [28][0][][] */ -119,-24,-87,-127,47,66,73,-18,5,51,-74,1,32,20,-8,27, 
  /* [29][0][][] */ -89,-63,-63,127,-74,-8,-7,-22,-38,12,-23,53,53,-63,51,-3, 
  /* [30][0][][] */ 86,-15,122,-79,118,18,-41,68,-71,-55,122,-44,39,15,-32,127, 
  /* [31][0][][] */ 48,-62,7,-85,19,-89,55,-24,-8,45,80,-1,-38,80,65,127, 
  /* [32][0][][] */ -12,43,-52,35,-127,30,-53,-63,-62,-58,-7,36,-30,59,60,70, 
  /* [33][0][][] */ 37,-3,25,47,12,6,-15,-58,-127,18,47,-45,-15,-26,40,116, 
  /* [34][0][][] */ -22,-14,27,-15,49,18,-127,20,-14,94,-5,-8,-22,23,24,-55, 
  /* [35][0][][] */ 40,6,-28,-13,7,-127,7,-23,-24,-36,-7,7,27,20,6,24, 
  /* [36][0][][] */ 48,22,-127,-20,-6,29,-20,27,-77,4,35,-50,5,1,-63,113, 
  /* [37][0][][] */ 18,-30,127,54,-49,73,-4,-30,3,100,-49,15,24,18,24,-2, 
  /* [38][0][][] */ -88,-15,98,-32,-32,127,20,-87,29,-57,98,-17,-68,-50,31,-37, 
  /* [39][0][][] */ -7,-6,19,18,23,-13,-127,25,16,36,11,-24,25,-8,5,-8, 
  /* [40][0][][] */ 5,107,-71,78,-10,68,38,89,20,-23,-71,65,3,-33,-127,-21, 
  /* [41][0][][] */ 38,18,-69,-30,-78,-18,127,74,-40,45,-79,10,33,39,18,-6, 
  /* [42][0][][] */ 41,59,-21,-96,-45,12,-31,101,66,-123,127,72,-5,18,63,-40, 
  /* [43][0][][] */ 12,-22,36,-19,14,27,-67,-70,22,-23,-33,-26,-127,-33,68,51, 
  /* [44][0][][] */ 4,74,-50,-10,-32,-85,9,-19,127,-12,-12,49,50,107,11,77, 
  /* [45][0][][] */ -37,-6,-25,-34,33,4,14,73,25,4,30,3,-2,50,-36,127, 
  /* [46][0][][] */ -63,72,-19,68,-97,-3,2,-51,-127,15,-6,2,-2,31,-7,-49, 
  /* [47][0][][] */ -26,-52,-77,120,5,78,27,-5,-26,60,127,71,-41,5,56,17, 
  /* [48][0][][] */ -33,46,53,-100,30,-7,-71,77,-92,4,-2,-34,-4,74,127,77, 
  /* [49][0][][] */ 127,45,18,116,78,123,-71,28,-25,-67,-24,42,117,-104,-84,-25, 
  /* [50][0][][] */ -6,90,67,-121,80,87,-4,50,127,6,-74,-10,-23,-32,114,-126, 
  /* [51][0][][] */ 13,9,12,21,50,30,-64,-127,30,-4,28,7,-6,-27,-16,7, 
  /* [52][0][][] */ -7,6,-14,13,55,-15,-97,103,-44,127,-19,6,105,78,-57,33, 
  /* [53][0][][] */ -11,99,-8,-66,-35,24,17,-32,-72,-127,-26,25,16,-110,-66,-8, 
  /* [54][0][][] */ -12,1,7,50,63,-26,39,-29,-29,25,12,-22,3,127,-41,-37, 
  /* [55][0][][] */ -127,116,50,-26,24,-98,47,40,-60,15,80,-46,-71,-14,125,1, 
  /* [56][0][][] */ 38,-50,64,-81,116,41,-41,46,57,-53,67,79,-11,10,94,127, 
  /* [57][0][][] */ -6,44,3,50,-62,35,20,127,-10,35,23,8,2,1,-30,-16, 
  /* [58][0][][] */ 52,108,-74,-90,14,8,-13,38,110,-48,23,127,-22,-80,21,99, 
  /* [59][0][][] */ -19,42,56,-52,-7,22,-19,-28,54,10,33,-35,-23,-127,-49,-29, 
  /* [60][0][][] */ 68,-38,99,-38,-53,127,43,-73,30,53,-58,-70,-23,-12,52,61, 
  /* [61][0][][] */ 32,19,-13,-64,-30,41,55,127,-38,13,-34,43,24,103,23,17, 
  /* [62][0][][] */ 121,-6,43,41,41,103,-117,-95,47,-48,54,-36,-22,-127,90,110, 
  /* [63][0][][] */ 28,6,17,-75,48,47,-100,-127,-56,48,-34,19,18,15,-23,-51, 
  /* [64][0][][] */ -44,15,48,42,104,-82,-7,-127,8,-99,23,-74,8,6,-53,16, 
  /* [65][0][][] */ -127,-29,51,-45,34,31,41,-34,-83,20,17,-14,-14,40,-5,-57, 
  /* [66][0][][] */ 30,-35,127,-2,17,16,-12,29,-50,3,3,-32,1,65,-116,-71, 
  /* [67][0][][] */ 93,-33,-90,-27,-4,-75,18,-44,53,-127,-73,-39,-89,3,-13,-14, 
  /* [68][0][][] */ 112,-24,-102,70,-62,-39,-29,-76,-64,-40,108,-31,-3,55,127,71, 
  /* [69][0][][] */ -51,5,-84,57,-33,-17,68,71,-15,33,69,-51,127,28,-62,48, 
  /* [70][0][][] */ 24,-28,5,-26,-23,-25,99,127,-36,29,13,17,74,108,74,19, 
  /* [71][0][][] */ 50,-11,-82,-64,44,-21,22,51,-26,-63,-29,0,21,-127,57,20, 
  /* [72][0][][] */ -4,42,31,61,53,-76,7,-104,58,100,9,-4,78,127,65,26, 
  /* [73][0][][] */ -82,-127,-25,-50,-90,42,-3,-6,-25,38,-54,-23,4,-17,32,-26, 
  /* [74][0][][] */ -26,16,42,108,-49,7,-127,63,28,-17,-13,-50,-36,-18,-27,-19, 
  /* [75][0][][] */ -31,49,-9,6,3,127,15,69,17,70,8,-11,-98,73,15,35, 
  /* [76][0][][] */ 11,39,-12,-16,-6,45,-118,-127,-9,-32,35,-2,57,-55,17,-36, 
  /* [77][0][][] */ 2,-17,-56,1,-51,-9,-8,-22,127,26,-64,-11,15,27,47,-63, 
  /* [78][0][][] */ -66,-64,-44,88,70,103,-13,16,-31,-5,-121,127,54,-94,88,55, 
  /* [79][0][][] */ 27,-18,63,-41,127,-8,62,62,91,107,24,28,54,-15,48,-95, 
  /* [80][0][][] */ 15,8,38,-127,-18,-32,-6,1,-38,-49,32,-24,6,71,-42,4, 
  /* [81][0][][] */ -25,8,99,65,-11,57,-5,64,9,-31,-5,9,45,125,-127,-26, 
  /* [82][0][][] */ -114,-72,-6,-127,-81,15,-41,-83,-23,-122,20,-110,-22,-104,-26,51, 
  /* [83][0][][] */ -1,65,-34,-115,-26,-2,-43,-37,-53,28,18,-73,-11,-62,41,127, 
  /* [84][0][][] */ 89,24,-5,55,-43,19,-57,-14,7,-21,127,6,-121,3,84,-88, 
  /* [85][0][][] */ -14,-72,44,-45,51,-17,7,77,-99,-78,-18,-37,44,62,59,-127, 
  /* [86][0][][] */ -33,-2,36,4,-104,80,17,60,-60,-74,30,-8,-52,-127,-4,20, 
  /* [87][0][][] */ 127,-90,10,-5,-106,12,2,14,-19,16,-125,19,8,30,48,47, 
  /* [88][0][][] */ -29,-26,-63,46,25,-77,-45,-72,100,-7,58,28,-31,-1,127,-92, 
  /* [89][0][][] */ 27,57,-56,-18,-1,-4,30,-26,20,66,64,-5,11,45,-46,-127, 
  /* [90][0][][] */ -34,-38,15,-65,-70,-17,127,3,51,-31,-4,-70,47,-20,-125,42, 
  /* [91][0][][] */ 48,7,26,-49,16,25,27,-19,-50,-12,101,51,8,28,31,127, 
  /* [92][0][][] */ 75,19,2,13,23,-9,-66,-127,10,-33,81,-47,-30,-8,60,-27, 
  /* [93][0][][] */ 58,18,27,-69,-22,7,9,105,46,-24,71,-27,-15,66,-35,127, 
  /* [94][0][][] */ -38,66,-70,-23,55,-127,13,-21,14,-36,41,15,10,-6,5,7, 
  /* [95][0][][] */ -2,42,24,-89,21,-25,-10,17,36,24,-50,-17,11,5,-12,-127, 
};
const TfArray<96, float> quant13_scale = { 96, { 0.0008016085484996438, 0.00052297575166448951, 0.00046996513265185058, 0.00039406956057064235, 0.0005484658177010715, 0.00067008670885115862, 0.0013703645672649145, 0.00094712764257565141, 0.00035265323822386563, 0.00091980781871825457, 0.0009436997352167964, 0.00090718752471730113, 0.00036129733780398965, 0.00053560221567749977, 0.00026842480292543769, 0.00094731006538495421, 0.00061814393848180771, 0.00056360458256676793, 0.00044108057045377791, 0.00094860373064875603, 0.00077856151619926095, 0.00077367172343656421, 0.00058455835096538067, 0.0017028568545356393, 0.0031475147698074579, 0.0013122791424393654, 0.00064221990760415792, 0.00058514677220955491, 0.0012130903778597713, 0.00037546563544310629, 0.00017033761832863092, 0.00055593124125152826, 0.00063456135103479028, 0.0009689776343293488, 0.00044485626858659089, 0.00070778699591755867, 0.00037097083986736834, 0.00069559138501062989, 0.00037094135768711567, 0.0015811936464160681, 0.00056213326752185822, 0.00046814314555376768, 0.00017108672182075679, 0.00090550753520801663, 0.0003250492736697197, 0.0010511343134567142, 0.0010947796981781721, 0.0005864693084731698, 0.00022603888646699488, 0.00079697900218889117, 0.00037193438038229942, 0.00064570963149890304, 0.00091647234512493014, 0.00067399808904156089, 0.0014728793175891042, 0.0004620864347089082, 0.00068233825732022524, 0.00044578863889910281, 0.00088036735542118549, 0.00067190011031925678, 0.00070420221891254187, 0.00031895516440272331, 0.00058278435608372092, 0.00057769124396145344, 0.0007250025519169867, 0.00067718862555921078, 0.0010154348565265536, 0.00071034557186067104, 0.00056881766067817807, 0.00058940239250659943, 0.00057450676104053855, 0.00034511400735937059, 0.00025731741334311664, 0.00090082164388149977, 0.0011405781842768192, 0.0013949676649644971, 0.0010307320626452565, 0.00096798897720873356, 0.00093064538668841124, 0.00068446557270362973, 0.00043228489812463522, 0.00036493522929958999, 0.00051589403301477432, 0.00034468682133592665, 0.0012880960712209344, 0.0010729748755693436, 0.00069646106567233801, 0.00015292756143026054, 0.00034915734431706369, 0.00084100745152682066, 0.0005200457526370883, 0.0015245528193190694, 0.00093979091616347432, 0.00061767135048285127, 0.0010187081061303616, 0.00060322048375383019, } };
const TfLiteAffineQuantization quant13 = { (TfLiteFloatArray*)&quant13_scale, (TfLiteIntArray*)&g0::quant6_zero, 0 };
const MODEL_SECTION(EI_MODEL_SECTION) ALIGN(16) int32_t tensor_data14[16] = { 3235, -9452, -6578, 11060, 30288, 3467, -6450, -4815, 6695, -8391, 32962, 23980, -12313, 18229, 34352, -4362, };
const TfArray<16, float> quant14_scale = { 16, { 0.00037532439455389977, 0.00033598107984289527, 0.00031770922942087054, 0.00020280573517084122, 0.00036609781091101468, 0.00037747452734038234, 0.00024612911511212587, 0.00044183438876643777, 0.00023034604964777827, 0.00021899784042034298, 0.00033344424446113408, 0.00059640529798343778, 0.0004419255128595978, 0.0004500244976952672, 0.00048679503379389644, 0.00033506006002426147, } };
const TfLiteAffineQuantization quant14 = { (TfLiteFloatArray*)&quant14_scale, (TfLiteIntArray*)&g0::quant8_zero, 0 };
const MODEL_SECTION(EI_MODEL_SECTION) ALIGN(16) int8_t tensor_data15[16*1*1*96] = { 
  /* [0][0][][] */ -9,-27,52,28,57,65,-28,-38,47,2,34,-5,-36,17,33,87,-18,-27,-26,-17,119,-61,37,-13,-26,-20,-73,-111,54,7,56,24,127,12,16,-18,10,-29,-24,25,-16,15,34,-45,10,-3,-51,76,-8,25,14,-12,-50,-12,-16,26,61,31,-14,-49,-75,40,4,-20,20,-16,76,25,1,21,24,1,-93,-5,-7,-9,25,-83,-17,-6,39,-9,-44,-57,24,-41,-13,1,-38,42,40,-38,31,23,-23,98, 
  /* [1][0][][] */ 93,-57,6,80,-57,-5,-31,-81,-10,-119,-36,41,10,-42,-14,-55,-114,-9,26,71,25,-75,16,37,127,-39,-65,30,10,86,-8,18,-7,31,-56,57,14,4,39,-50,53,-33,40,-38,-13,13,77,-35,63,19,39,-47,37,-77,26,-34,46,2,-74,-98,58,-84,43,-57,7,-70,30,50,12,46,-104,-15,-110,36,21,95,6,90,33,-85,47,-17,-67,-21,-104,19,17,39,-84,8,-8,-1,70,-18,68,2, 
  /* [2][0][][] */ -13,15,15,-24,34,-29,-1,50,65,-2,10,45,-14,32,28,23,-1,8,3,-6,-41,-29,-2,-13,-9,7,-6,-14,-4,21,58,-28,33,-26,-11,45,3,127,-52,1,-7,-30,17,28,-15,-74,-51,24,15,15,-12,-11,15,-13,17,-34,-63,5,-2,35,24,3,53,84,22,-77,21,-59,-13,15,22,4,-15,-7,-65,-6,25,44,-4,62,10,98,16,-7,12,28,-20,15,26,11,2,-61,-38,17,11,54, 
  /* [3][0][][] */ -9,-43,-67,83,21,-4,2,-18,-26,4,19,-16,22,28,73,-27,67,-27,-17,19,12,41,17,7,10,28,37,21,24,-71,61,-26,55,-32,-31,61,9,24,-77,16,-7,-91,7,3,12,-17,-1,6,-127,21,-30,63,-110,-16,4,-31,7,13,-21,82,14,-10,32,21,-11,-67,-40,28,43,-6,-19,-9,-43,8,8,-10,-63,-41,48,-38,24,-60,40,93,56,89,30,8,18,-21,-3,10,48,8,-16,-36, 
  /* [4][0][][] */ -1,4,26,-80,15,-21,-24,24,-41,-26,-37,-19,-34,53,32,3,76,-22,-30,-11,-11,34,57,-14,-34,-6,16,36,-32,16,-23,-12,-3,21,28,33,58,3,-18,9,10,-13,-79,-44,20,-9,-11,-12,-2,96,-20,4,-20,-29,11,-28,17,-20,12,31,40,-12,49,13,14,-127,28,-16,-39,36,2,23,-4,28,-46,-24,-18,104,65,-26,31,-16,116,-19,69,-38,-16,-42,33,34,-7,16,-42,19,-6,-66, 
  /* [5][0][][] */ -17,-11,33,-2,-9,-20,9,87,66,-15,-8,-64,-50,60,51,58,-10,4,-7,-21,-35,15,43,-36,29,35,-12,35,77,10,47,46,-48,34,-2,40,-59,-63,-70,-8,-38,-28,4,-22,70,-19,-2,24,24,0,-23,17,-45,-26,26,-12,-38,-25,-37,39,-53,7,0,-64,32,-1,-19,-2,-6,37,1,11,15,-24,-1,-6,10,14,5,127,2,-23,20,18,-1,-11,-16,-47,-9,20,33,-122,-13,-15,-7,-112, 
  /* [6][0][][] */ -18,32,-38,-83,2,-13,-14,-11,21,23,-12,32,98,-51,-37,-71,-13,-26,72,13,16,-11,-47,16,106,-50,27,31,22,-22,50,-9,-24,-64,-47,-11,18,54,65,1,-16,12,-82,-24,-24,39,19,-127,-9,60,2,-12,-5,28,-43,-52,55,12,-6,-10,41,16,-31,-12,33,90,-1,-18,-36,-32,-19,-67,-13,27,93,5,-59,28,11,-17,-33,-38,68,-48,-6,76,53,-37,79,-47,-60,8,-11,-12,1,40, 
  /* [7][0][][] */ 26,26,3,-38,-22,-6,-23,-36,4,-7,-12,4,-14,-51,11,-23,-12,6,5,-18,3,-37,-53,6,-19,-18,-2,-12,-13,-4,3,-12,-10,-7,-22,-28,-5,-13,-1,-20,-17,-3,-36,31,-27,40,-3,50,-15,43,-26,-17,-18,21,-17,-67,29,2,9,-8,21,5,-23,7,-15,64,-1,-16,-3,-5,-27,29,-6,-10,13,-6,15,1,5,0,-4,-20,20,-7,-49,127,15,14,-51,-33,-13,32,-35,-4,25,24, 
  /* [8][0][][] */ -81,50,13,-8,14,16,5,9,-11,79,-39,-3,-31,14,72,3,10,22,-100,54,59,22,25,-24,-31,-40,25,-21,64,-78,14,8,17,-16,18,79,-9,-11,-89,69,41,9,23,-127,-54,-22,76,0,-13,29,2,47,-92,84,-9,-9,18,-48,-29,-4,-27,-24,10,37,-42,26,43,-10,5,11,18,44,-22,1,21,38,12,-102,13,-44,-16,-10,33,5,-45,0,32,-24,-14,37,-10,-16,81,-9,-19,-17, 
  /* [9][0][][] */ 4,-96,25,-46,57,10,-18,36,8,-48,32,23,-64,5,-32,54,-10,40,45,18,-65,21,-28,-40,63,62,23,-54,-46,-65,-38,40,-16,65,42,48,-2,31,-75,27,19,21,10,-109,13,-83,-24,-116,-17,-4,-25,9,-10,4,49,-17,-86,23,-23,19,-10,-5,17,18,6,127,-2,29,3,30,19,-33,39,-17,-59,41,78,-29,-31,27,-34,20,14,-84,-14,52,-65,47,-72,44,-29,-5,17,-10,19,-29, 
  /* [10][0][][] */ 43,107,-4,26,64,-124,-17,-63,-8,55,6,-12,-30,14,27,-99,47,29,-45,60,-66,6,-3,-50,-60,-29,-83,48,-10,45,2,66,6,-36,43,35,86,-44,-42,-25,-33,55,54,-35,-67,-28,-16,-6,-19,-51,-65,-10,-25,-44,17,-19,11,17,-48,4,-4,9,-20,12,29,44,67,18,17,4,16,88,-65,-31,-41,-19,-1,20,-3,-30,18,14,-83,-38,61,-58,109,-60,-7,23,35,-19,75,76,-25,-127, 
  /* [11][0][][] */ 45,41,-28,18,8,23,56,9,-4,-17,-15,-21,-55,37,44,24,-5,6,-113,5,11,12,53,-16,-40,-15,-32,21,-7,29,12,-14,-26,-4,28,49,13,-17,-49,45,-10,15,53,-118,25,-46,-11,-6,-127,23,7,-45,38,11,-12,-14,-42,-35,11,6,-16,-41,9,3,-53,59,-18,8,23,-3,19,13,-57,-49,16,26,4,-45,-55,-7,4,-3,84,48,10,-1,-18,-29,-22,66,-21,-16,9,2,-36,16, 
  /* [12][0][][] */ -13,-27,43,16,-17,40,22,19,127,-12,13,4,-56,38,-42,-21,34,7,10,63,49,40,34,4,13,9,-14,-45,-75,-1,12,-44,-1,-1,-4,-17,29,-9,28,-45,-50,-11,17,5,8,1,-51,-13,39,20,5,16,-14,-29,27,-1,51,-14,12,1,15,-56,9,-44,14,26,-32,-8,7,24,-16,-48,29,32,-68,-25,27,2,-17,-40,-2,35,42,35,-23,-24,-36,-20,-47,38,-12,40,0,-6,19,3, 
  /* [13][0][][] */ 28,5,-44,13,49,-26,-23,2,-7,21,-6,4,24,-13,-10,-36,33,-56,-37,-11,-36,-34,-20,9,2,-5,15,-3,-29,-34,-13,26,14,-17,-5,2,25,12,36,9,-17,2,10,65,10,19,-29,-127,6,11,-18,7,-20,5,13,-16,-7,33,45,16,18,33,-21,-5,-8,-4,-28,-71,4,6,-6,-29,-2,50,-10,-2,-38,14,10,4,8,-19,-32,30,16,49,10,28,1,-18,22,-6,-32,5,-16,1, 
  /* [14][0][][] */ -118,-15,21,21,34,-40,-31,2,-34,7,5,30,48,-6,-127,-5,72,-17,2,11,-32,-5,35,-16,-107,-3,22,-58,-36,-62,-65,28,-16,10,52,-72,3,18,-12,0,49,64,7,-31,-7,125,96,63,-90,13,7,13,-67,13,5,-18,4,6,59,56,33,81,-30,88,14,0,-52,25,38,45,-64,-77,-56,-23,24,49,-23,28,93,-35,54,31,33,24,50,2,111,14,24,-36,48,12,12,49,31,-10, 
  /* [15][0][][] */ 85,-10,72,-24,-7,65,42,-74,-7,36,43,12,-66,-49,-9,33,-30,21,30,-24,26,25,-107,-5,-9,8,4,-7,88,78,-34,-98,-8,-42,46,19,-5,-42,-10,-108,14,19,22,-1,-20,96,2,-21,75,-43,-51,-5,29,-127,10,-81,48,-74,19,23,-127,-20,28,3,71,-23,-13,75,3,61,-41,41,13,22,-7,20,51,-62,33,-25,-3,25,36,71,-4,-25,-18,-103,-27,37,93,-40,-66,61,9,-37, 
};
const TfArray<16, float> quant15_scale = { 16, { 0.015951287001371384, 0.014279195107519627, 0.013502641580998898, 0.0086192432790994644, 0.01555915642529726, 0.016042666509747505, 0.010460487566888332, 0.018777960911393166, 0.009789707139134407, 0.0093074077740311623, 0.014171379618346691, 0.025347223505377769, 0.018781833350658417, 0.019126040861010551, 0.020688788965344429, 0.014240052551031113, } };
const TfLiteAffineQuantization quant15 = { (TfLiteFloatArray*)&quant15_scale, (TfLiteIntArray*)&g0::quant8_zero, 0 };
const MODEL_SECTION(EI_MODEL_SECTION) ALIGN(16) int32_t tensor_data16[96] = { 11430, -8946, 5433, 63995, -2116, -5122, -11906, 2288, -2924, 472, 2469, -2562, 2191, -6298, 5455, -4359, -2020, 16638, 25145, 3028, 3106, -1801, -179, 560, 16428, -812, -1476, -2851, -7858, -9521, 6489, -9759, -1833, -835, -1041, 14416, 2976, -1528, 25455, 777, 584, 1922, -12057, -8193, -8158, 66354, 549, 19361, 26774, -13806, -304, 8504, 7470, 593, -4142, 2447, -15106, 1384, 2420, -4692, -763, 243, -15392, -368, -886, 15289, 37183, 28105, -12308, 467, -8222, -3047, 35206, 11213, -439, -840, 20814, 31076, 780, -8096, -2010, -6057, -408, -3462, -176, -1366, 2585, -2334, -166, -1581, 223, -3318, 716, 2378, 375, 47520, };
const TfArray<96, float> quant16_scale = { 96, { 0.00018759118393063545, 0.00010250625928165391, 0.00026513199554756284, 3.2787986128823832e-05, 0.00017130916239693761, 0.00017339931218884885, 0.00035734038101509213, 8.3262333646416664e-05, 0.00011953366629313678, 0.00042419991223141551, 0.00016601098468527198, 0.00037292140768840909, 0.00011072185589000583, 0.000380412966478616, 0.00017324471264146268, 0.00017290867981500924, 0.00010226100857835263, 0.00024662140640430152, 6.388054316630587e-05, 0.00021899078274145722, 4.3492214899742976e-05, 0.00017579756968189031, 0.00012442134902812541, 0.00034516735468059778, 0.00022927173995412886, 0.00023375762975774705, 0.00015163965872488916, 0.00022167101269587874, 9.4412927865050733e-05, 8.9189983555115759e-05, 0.00013550982112064958, 0.00017736748850438744, 0.0001217341487063095, 0.0001243007427547127, 0.00024087335623335093, 0.00016912755381781608, 0.00048214427079074085, 0.00010958828352158889, 5.2802806749241427e-05, 0.00016483428771607578, 0.00028641120297834277, 0.00034427086939103901, 0.00034943124046549201, 0.00014515827933792025, 0.00017366571410093457, 4.9333717470290139e-05, 0.00021650273993145674, 0.00018561881734058261, 9.1158508439548314e-05, 0.00015998989692889154, 0.00024896251852624118, 0.00013119680806994438, 0.00020627534831874073, 0.00032203138107433915, 0.00040943190106190741, 0.00032051771995611489, 0.00023613755183760077, 0.00022730093041900545, 0.00012370699550956488, 8.1492456956766546e-05, 0.00030245567904785275, 0.00016432971460744739, 0.00025053485296666622, 0.00013963707897346467, 0.00013187814329285175, 0.00017965752340387553, 6.9015630288049579e-05, 5.3110627050045878e-05, 0.00034336018143221736, 0.00020764597866218537, 0.00022168508439790457, 8.6612402810715139e-05, 0.00016954056627582759, 0.00014076961087994277, 0.00016045427764765918, 0.00025410490343347192, 0.00050276797264814377, 5.1859056839020923e-05, 0.00025289406767114997, 0.00023516301007475704, 0.00014401246153283864, 0.00035079009830951691, 0.00010886060044867918, 0.00011527932656463236, 0.00014082099369261414, 0.00011831885785795748, 0.00013659211981575936, 0.00018677339539863169, 0.00022180195082910359, 0.00014293292770162225, 0.00021309495787136257, 0.00012749299639835954, 0.00013922461948823184, 0.0005090113845653832, 0.0032277521677315235, 8.0426172644365579e-05, } };
const TfLiteAffineQuantization quant16 = { (TfLiteFloatArray*)&quant16_scale, (TfLiteIntArray*)&g0::quant6_zero, 0 };
const MODEL_SECTION(EI_MODEL_SECTION) ALIGN(16) int8_t tensor_data17[1*3*3*96] = { 
  /* [0][0][][] */ -19,2,-22,118,-18,26,-60,-52,21,-5,94,-6,0,-9,0,74,9,14,-37,-1,85,-2,38,-41,0,16,41,46,30,27,26,48,0,26,3,-19,1,50,-82,-30,24,9,27,23,-78,-55,27,-7,-9,-16,-4,-5,51,4,-9,3,0,-28,23,-35,27,-8,127,31,-11,-13,1,-49,66,33,4,-5,69,-41,69,10,13,-127,29,66,0,18,127,-15,40,27,-41,-14,37,-8,-18,84,0,17,3,13, -51,9,-11,10,52,-3,-8,-127,42,16,-127,0,-16,-12,1,108,16,-32,-24,-17,84,-96,127,20,-59,-31,-107,-16,35,42,-49,18,127,12,-12,-5,-27,127,-101,-127,10,-18,-26,15,45,-127,127,-47,-76,59,50,4,43,-65,29,56,41,47,-86,83,127,30,9,-23,46,-39,-106,1,33,-31,-10,41,-59,-49,108,1,-35,-58,-37,68,-71,66,-10,10,-9,44,55,-41,-22,46,-13,78,-127,-35,27,-127, -3,-8,-26,-69,9,27,38,17,-1,2,9,69,-3,-11,-6,7,-14,15,-27,14,15,20,26,-37,-2,-30,11,17,2,19,48,-71,49,13,12,-27,9,9,-55,-22,9,3,-12,11,24,-41,22,-1,6,-6,10,-2,7,3,-6,12,1,51,5,-9,13,-17,15,-15,-23,-19,13,-42,-108,-10,49,-14,-127,-30,-2,18,8,-17,6,13,-18,22,-28,1,-41,21,24,29,-23,-17,25,-6,14,1,1,-47, 
  /* [0][1][][] */ -42,56,-20,44,-85,-15,-9,-41,30,94,-44,-21,-29,-28,-1,77,127,-23,-93,-12,60,-127,-28,17,-35,-52,-127,-6,45,47,-50,26,-125,-74,-55,3,63,-6,-43,43,-20,84,2,-2,32,-46,-14,-34,127,43,-5,18,45,8,-37,-18,33,10,-121,127,-40,-93,16,127,-55,-34,-94,127,-36,127,-18,69,-36,-57,38,10,-40,-66,127,51,127,29,4,1,127,23,-107,51,-34,-34,-102,42,91,101,29,-58, 127,127,127,127,-42,-127,127,25,127,-127,17,-127,-110,127,127,127,-15,-127,-66,-127,127,20,-65,127,127,127,-57,-127,127,127,-127,127,-12,-127,-115,127,-127,-49,98,106,-127,-127,127,127,127,-111,-108,127,-15,127,-127,-127,-127,127,127,-127,127,-127,-36,42,-110,-24,-72,-71,127,127,-67,126,127,-106,-127,127,-49,127,-127,-127,-127,123,-80,127,-49,127,88,127,-35,-127,-26,-101,-127,-127,-22,-127,-27,-127,-127,120, -26,63,-38,4,127,72,-22,46,2,24,-12,-2,-30,-29,-9,-7,-106,-22,-127,36,35,75,-10,-116,-34,-44,124,70,20,50,70,12,124,-52,127,-4,52,6,-102,14,32,24,-20,4,-20,-48,-12,-43,80,17,-10,36,-6,-3,-75,-13,34,21,127,-101,3,127,7,-37,-105,-27,-91,108,15,-17,116,37,-23,-54,19,49,-29,-6,-46,0,-49,13,48,23,-89,30,127,-45,36,-21,127,-4,-113,30,32,17, 
  /* [0][2][][] */ -4,-49,-26,-63,-9,15,44,33,6,11,-22,55,27,-38,-2,16,48,1,10,26,-10,28,-27,-30,2,-25,11,1,-3,1,48,-73,-35,72,-33,-28,31,-40,-42,20,6,13,-30,18,11,-80,-11,-4,-7,11,15,-7,8,-3,-25,5,4,39,-55,37,-8,-18,9,21,-3,-8,8,-38,-55,15,-25,11,-119,-37,-2,23,9,-8,54,25,24,20,-46,14,22,27,-30,16,11,28,19,-3,24,39,-4,-28, -30,-16,-30,23,-40,70,-20,63,16,-6,51,-11,127,-7,-14,-14,3,-41,-49,28,-23,77,-51,-111,-45,-45,101,61,18,56,50,-1,-124,65,-5,-24,-28,-27,-127,-2,38,-13,-8,36,-23,-51,-17,-51,-59,33,66,22,-12,-84,29,51,27,24,64,-59,21,-57,-1,-2,22,-27,-127,-44,-10,-24,-66,33,30,-41,-29,0,-47,24,-59,5,52,39,21,12,7,57,-97,127,17,120,-30,-16,113,-23,47,83, -10,-42,-30,25,16,59,-42,15,8,-5,3,16,11,-48,-2,-5,-49,-9,16,18,-25,11,-32,4,-3,22,7,41,7,6,32,31,26,40,32,-25,-6,-28,-24,11,7,-11,23,13,-72,-38,-12,1,1,-11,0,-7,-10,6,-17,-7,6,-50,17,-42,-24,53,20,-32,-8,0,21,-41,48,8,59,-6,27,-56,-9,27,9,13,-10,27,-33,38,87,-9,-19,52,45,-4,115,14,6,-15,17,-26,-6,-48, 
};
const TfArray<96, float> quant17_scale = { 96, { 0.0079726250842213631, 0.0043565160594880581, 0.011268109083175659, 0.0013934894232079387, 0.0072806393727660179, 0.0073694703169167042, 0.015186966396868229, 0.0035386490635573864, 0.0050801807083189487, 0.018028495833277702, 0.0070554669946432114, 0.0158491600304842, 0.0047056786715984344, 0.016167551279067993, 0.007362899836152792, 0.0073486184701323509, 0.0043460926972329617, 0.010481409728527069, 0.0027149228844791651, 0.0093071078881621361, 0.0018484190804883838, 0.0074713965877890587, 0.0052879070863127708, 0.014669612050056458, 0.0097440490499138832, 0.0099346991628408432, 0.0064446856267750263, 0.0094210179522633553, 0.0040125492960214615, 0.0037905743811279535, 0.0057591674849390984, 0.0075381179340183735, 0.0051737013272941113, 0.0052827815525233746, 0.010237117297947407, 0.0071879206225275993, 0.020491130650043488, 0.0046575018204748631, 0.0022441192995756865, 0.0070054573006927967, 0.012172475457191467, 0.014631511643528938, 0.014850827865302563, 0.0061692269518971443, 0.0073807928711175919, 0.002096683019772172, 0.0092013664543628693, 0.0078887995332479477, 0.0038742364849895239, 0.0067995702847838402, 0.010580906644463539, 0.0055758641101419926, 0.008766702376306057, 0.013686333782970905, 0.017400855198502541, 0.013622002676129341, 0.010035845451056957, 0.0096602896228432655, 0.0052575473673641682, 0.0034634293988347054, 0.012854365631937981, 0.0069840126670897007, 0.010647730901837349, 0.0059345760382711887, 0.005604820791631937, 0.0076354448683559895, 0.0029331643600016832, 0.0022572015877813101, 0.014592806808650494, 0.0088249538093805313, 0.0094216158613562584, 0.0036810270976275206, 0.0072054737247526646, 0.0059827081859111786, 0.0068193064071238041, 0.010799458250403404, 0.021367637440562248, 0.002204009797424078, 0.010747998021543026, 0.0099944276735186577, 0.0061205294914543629, 0.014908579178154469, 0.0046265753917396069, 0.0048993714153766632, 0.0059848921373486519, 0.0050285514444112778, 0.0058051650412380695, 0.007937869057059288, 0.0094265826046466827, 0.0060746492817997932, 0.0090565355494618416, 0.0054184519685804844, 0.0059170462191104889, 0.021632984280586243, 0.13717946410179138, 0.0034181121736764908, } };
const TfLiteAffineQuantization quant17 = { (TfLiteFloatArray*)&quant17_scale, (TfLiteIntArray*)&g0::quant6_zero, 3 };
const MODEL_SECTION(EI_MODEL_SECTION) ALIGN(16) int32_t tensor_data18[96] = { 15211, 1099, 7813, -921, 6694, 5993, 19114, 8356, -1530, 21182, 6588, 2828, 7475, 19835, -294, -2950, 6781, 9132, 2284, -743, -381, 12036, 8544, 4883, 7453, 8131, 4610, 4258, -22, -369, 8264, 10505, 19488, 3329, 8161, -456, 20532, 6986, 1230, 5832, 1473, 12664, 11887, 3280, 4227, 15568, 18101, 11006, 5768, 4558, 780, -809, 13084, 8214, 13476, 17797, -573, 7916, 3093, 5630, 15357, 11956, 2889, 6199, 5444, 5157, 8480, -1371, 16214, 7176, 8096, -1402, -3301, 3623, 1998, 3710, 21525, 11017, 20252, -4206, 6574, -5584, -2076, 926, 5203, 6807, 10154, 3504, 14334, 2926, 13801, 3755, 10128, 35135, -8740, 15593, };
const TfArray<96, float> quant18_scale = { 96, { 0.00017610183567740023, 0.00033199210884049535, 0.00018405575247015804, 0.00055319233797490597, 0.00022928458929527551, 0.0001554313930682838, 0.00016187969595193863, 0.00041382861672900617, 0.00029185370658524334, 8.6616375483572483e-05, 0.0002103366277879104, 0.00026185059687122703, 0.00035487237619236112, 0.00024062952434178442, 0.00031800908618606627, 0.00029229876236058772, 0.00030387495644390583, 0.00025568189448677003, 0.00020642718300223351, 0.00032682975870557129, 0.00032656281837262213, 0.00019850504759233445, 0.00016785935440566391, 0.00016133014287333935, 0.00024615111760795116, 0.0002561537257861346, 0.00031494360882788897, 0.00022665734286420047, 0.00078076112549751997, 0.00020409689750522375, 0.00017286106594838202, 0.0001777266152203083, 0.00010369131632614881, 0.00033937758416868746, 0.00020286026119720191, 0.00048396928468719125, 0.0001118273357860744, 0.00037454074481502175, 0.00040369291673414409, 0.00015067501226440072, 0.00033654298749752343, 0.00015246075054164976, 0.00018558430019766092, 0.00019127585983369499, 0.00025541451759636402, 0.00021117132564540952, 0.00015208417607937008, 0.00012406920723151416, 0.0002699317701626569, 0.00019878119928762317, 0.00021201299387030303, 0.00076133577385917306, 0.00020377001783344895, 0.00020043492258992046, 0.00017325083899777383, 0.00010414769349154085, 0.00032935911440290511, 0.00021500850562006235, 0.0002536283282097429, 0.00026607853942550719, 0.00010866585944313556, 0.00012461293954402208, 0.00036671067937277257, 0.00043660667142830789, 0.00018059334252029657, 0.00023231215891428292, 0.00023947581939864904, 0.00036115673719905317, 0.00016816733113955706, 0.00015674204041715711, 0.00024316064082086086, 0.00034688677988015115, 0.00014218551223166287, 0.00037455576239153743, 0.00017294268764089793, 0.00032734285923652351, 0.00010992022725986317, 0.00041163424612022936, 8.1558246165513992e-05, 0.00027474210946820676, 0.00017186101467814296, 0.00036572589306160808, 0.00018817756790667772, 0.00035034515894949436, 0.00027750956360250711, 0.00023787138343323022, 0.00016102346125990152, 0.0003601167700253427, 0.00011326355888741091, 0.00052883528405800462, 0.00010733549424912781, 0.00044142396654933691, 0.00019011006224900484, 7.8170160122681409e-05, 0.00033761840313673019, 0.00021175808797124773, } };
const TfLiteAffineQuantization quant18 = { (TfLiteFloatArray*)&quant18_scale, (TfLiteIntArray*)&g0::quant6_zero, 0 };
const MODEL_SECTION(EI_MODEL_SECTION) ALIGN(16) int8_t tensor_data19[96*1*1*16] = { 
  /* [0][0][][] */ 7,-21,127,27,0,-33,-7,-29,38,6,-59,-87,26,41,32,-91, 
  /* [1][0][][] */ 23,120,7,-56,81,-7,-9,28,38,32,-35,0,2,-22,64,-127, 
  /* [2][0][][] */ 30,-50,-10,31,-36,-7,-28,55,-38,-56,3,127,-26,-60,74,-80, 
  /* [3][0][][] */ 127,123,-33,11,-125,-41,-47,-25,-15,-27,126,-76,-101,106,-58,-24, 
  /* [4][0][][] */ -16,-23,-92,24,-39,14,-58,68,-69,-64,20,5,-29,-127,19,7, 
  /* [5][0][][] */ 97,-27,-60,-5,-35,-93,-29,6,39,3,-127,-12,19,-46,-8,46, 
  /* [6][0][][] */ -86,-31,-15,98,-60,5,-14,100,-105,14,-66,9,118,0,43,127, 
  /* [7][0][][] */ -17,-19,-100,90,26,-127,-25,52,5,1,52,6,-27,32,-30,78, 
  /* [8][0][][] */ 65,-48,-13,-42,-19,13,-23,-46,-29,-12,-99,-42,-127,20,19,47, 
  /* [9][0][][] */ 35,-69,62,81,22,-13,12,-104,127,-108,17,-103,-64,18,-10,68, 
  /* [10][0][][] */ -43,-76,-9,-35,127,19,3,11,96,-78,-108,-42,63,-47,-44,-7, 
  /* [11][0][][] */ 44,-27,-127,-25,-1,-3,3,47,-48,-36,-14,-26,-11,-15,-22,13, 
  /* [12][0][][] */ 102,-28,-44,-8,53,-127,2,-35,-3,-19,-95,-22,-80,-8,-22,42, 
  /* [13][0][][] */ 52,-53,-6,-61,50,-38,-38,-88,27,-127,23,52,24,-33,-22,-42, 
  /* [14][0][][] */ -53,4,-127,-39,46,-111,43,-21,48,51,7,-87,34,93,48,39, 
  /* [15][0][][] */ 23,-3,43,42,35,-8,-23,-37,54,-1,-48,5,-127,-42,-41,63, 
  /* [16][0][][] */ -67,58,24,-2,-42,54,25,49,-12,28,127,-1,29,1,-4,-7, 
  /* [17][0][][] */ -9,-1,-53,-15,7,10,1,70,-20,127,-21,-15,10,81,54,-1, 
  /* [18][0][][] */ 26,102,-57,-18,6,6,42,-55,59,127,-76,83,-3,-62,52,-107, 
  /* [19][0][][] */ -9,22,54,46,-2,59,-10,0,32,64,-33,-76,-127,-29,-25,17, 
  /* [20][0][][] */ 94,-39,15,-118,-16,33,50,-127,-113,27,-124,-44,94,13,8,49, 
  /* [21][0][][] */ 77,-18,127,29,-39,60,50,-28,13,47,-32,-17,-25,125,6,30, 
  /* [22][0][][] */ 10,-78,-62,-31,-69,-97,22,127,37,-52,88,90,-123,79,74,73, 
  /* [23][0][][] */ -59,27,-90,34,-7,-127,24,41,8,-53,-20,-37,-62,-14,20,68, 
  /* [24][0][][] */ 27,-48,34,-59,11,-3,-22,1,20,11,65,45,-11,49,127,50, 
  /* [25][0][][] */ -114,-73,-127,-36,-4,-69,-30,-85,-72,-74,-82,-14,-41,27,6,71, 
  /* [26][0][][] */ -5,0,56,-8,-27,45,-45,59,-65,-73,-17,-9,18,-127,84,-6, 
  /* [27][0][][] */ -73,52,-58,31,25,14,23,5,45,-40,127,51,2,-25,-3,-41, 
  /* [28][0][][] */ -41,0,30,17,-33,6,10,63,25,6,-35,-26,-127,3,-5,44, 
  /* [29][0][][] */ -46,90,54,-69,38,-36,106,-35,-127,38,-39,8,-7,6,-109,-22, 
  /* [30][0][][] */ 3,18,-127,-34,15,-43,27,18,-16,-8,-22,-36,-26,-21,-23,11, 
  /* [31][0][][] */ 127,-56,-104,20,37,-9,-61,42,-17,-17,-87,-3,13,-2,-11,17, 
  /* [32][0][][] */ -127,30,-14,25,23,116,5,17,9,33,116,7,-89,2,-70,5, 
  /* [33][0][][] */ 65,-20,120,36,-127,82,44,-3,49,89,-62,5,-14,51,43,30, 
  /* [34][0][][] */ 16,-63,-127,-100,26,-51,-40,22,17,-35,31,-106,15,35,17,70, 
  /* [35][0][][] */ 8,-47,48,36,72,4,5,-7,-108,30,-4,16,-11,127,-4,-34, 
  /* [36][0][][] */ -68,62,-27,-22,-42,34,35,55,-6,47,127,-3,40,-2,5,21, 
  /* [37][0][][] */ -27,1,127,-45,-67,-26,13,-13,50,31,-21,29,43,-78,39,-45, 
  /* [38][0][][] */ 13,-19,-16,43,21,-16,-52,65,-44,23,65,10,127,35,-25,20, 
  /* [39][0][][] */ -47,-34,15,-68,-27,-85,-33,56,-62,-103,58,-75,-1,63,63,127, 
  /* [40][0][][] */ 32,25,59,11,20,99,-57,-18,33,22,37,11,127,5,-2,-69, 
  /* [41][0][][] */ 4,-40,-65,-127,18,-6,-2,-50,20,-2,24,-46,-33,-65,40,58, 
  /* [42][0][][] */ 3,20,14,127,-68,10,-67,-5,-31,-40,46,-60,-28,79,-25,-10, 
  /* [43][0][][] */ 52,97,-17,127,9,-19,91,-36,-51,35,-32,4,-11,-66,112,20, 
  /* [44][0][][] */ -42,21,-127,55,107,67,-48,83,-27,-34,97,-8,28,-53,-82,-11, 
  /* [45][0][][] */ -16,61,-58,-127,14,-13,24,-18,-7,65,-19,4,-1,-124,79,-62, 
  /* [46][0][][] */ -35,81,90,3,57,39,-72,74,15,-16,-37,-5,-37,127,40,-78, 
  /* [47][0][][] */ 43,-26,-21,-77,-80,-4,-91,127,-49,-85,34,62,22,-119,67,4, 
  /* [48][0][][] */ 17,-7,9,-127,-20,-18,14,2,1,-18,0,-33,13,26,-6,73, 
  /* [49][0][][] */ -1,-17,28,127,83,19,26,36,-41,35,36,18,11,8,97,-27, 
  /* [50][0][][] */ -59,-3,126,-44,70,116,-93,-43,1,-11,127,92,78,76,-45,-125, 
  /* [51][0][][] */ 16,70,54,-1,15,10,-34,26,33,-1,-17,127,3,30,42,-92, 
  /* [52][0][][] */ 4,43,106,28,29,-47,28,-29,-16,-3,-15,13,21,60,-127,-20, 
  /* [53][0][][] */ -30,-44,-12,-127,-80,13,17,-46,-46,42,54,-40,37,-39,41,24, 
  /* [54][0][][] */ -39,-91,-86,-20,-15,-35,-14,37,45,-97,18,-97,-70,127,46,-18, 
  /* [55][0][][] */ 14,-55,-18,-9,17,-2,14,-127,14,-9,-87,-34,10,-116,-47,-111, 
  /* [56][0][][] */ 42,13,-4,53,-10,-22,9,121,11,-41,10,-33,127,-15,-72,55, 
  /* [57][0][][] */ 56,-45,102,-26,-75,-62,2,-72,3,-24,-127,-38,5,-18,91,14, 
  /* [58][0][][] */ 39,55,14,61,-127,-27,34,58,-52,0,42,-14,-23,-23,-3,-14, 
  /* [59][0][][] */ 127,-46,-111,34,-83,25,-57,63,-83,106,-119,-12,13,-9,-23,48, 
  /* [60][0][][] */ -127,81,49,3,31,13,28,53,-13,39,50,21,14,-6,40,-96, 
  /* [61][0][][] */ -40,42,116,-13,51,73,-97,-127,81,-84,20,29,16,-58,-53,-10, 
  /* [62][0][][] */ -47,-18,-118,68,97,110,12,113,84,-30,51,-47,-59,28,-127,32, 
  /* [63][0][][] */ -46,-5,127,-29,-29,7,-3,-23,-21,27,21,27,-1,-16,54,-1, 
  /* [64][0][][] */ -10,62,5,54,15,13,57,-105,-13,127,64,-46,-25,-61,-1,30, 
  /* [65][0][][] */ -20,-5,25,-31,89,-6,-8,-127,-18,-46,14,-38,-4,-67,44,-10, 
  /* [66][0][][] */ -121,19,-13,-11,-57,27,-4,-50,-127,-70,-82,88,57,29,62,114, 
  /* [67][0][][] */ -38,-88,-87,99,-24,-49,-39,79,107,-12,22,-127,-10,-77,-75,-28, 
  /* [68][0][][] */ 2,2,-24,127,-60,-47,3,-31,-54,13,28,-1,-14,-68,-56,-86, 
  /* [69][0][][] */ 6,68,61,52,55,58,81,-127,17,57,35,31,-15,-2,9,1, 
  /* [70][0][][] */ 32,-29,37,-83,93,37,52,-46,120,-28,75,-76,17,127,33,68, 
  /* [71][0][][] */ -37,51,9,92,86,-114,-41,124,26,-127,41,43,24,-58,-70,-6, 
  /* [72][0][][] */ -115,-98,-23,94,-1,2,-11,38,-34,-41,-127,40,109,13,8,127, 
  /* [73][0][][] */ 15,41,31,89,-30,11,-27,-30,32,23,-26,5,20,127,-51,-50, 
  /* [74][0][][] */ 46,-34,-44,3,-10,-104,33,14,-57,-45,-127,-41,-117,-9,47,45, 
  /* [75][0][][] */ -45,30,35,127,-33,35,-2,-24,-38,30,-35,-17,5,-23,-23,-29, 
  /* [76][0][][] */ 6,-38,-2,35,9,28,-47,-121,-15,-127,15,22,-59,-27,22,-15, 
  /* [77][0][][] */ 127,5,36,44,17,-1,-12,-40,51,3,-31,49,24,18,-105,85, 
  /* [78][0][][] */ -33,18,127,-25,38,90,-45,67,56,-26,-86,15,49,93,-28,-72, 
  /* [79][0][][] */ -29,12,74,11,51,71,-75,-74,28,-95,64,-47,127,-26,-3,-40, 
  /* [80][0][][] */ -127,-68,-31,116,-20,68,-11,8,-60,30,-118,35,48,-51,24,57, 
  /* [81][0][][] */ 54,-19,-50,30,127,56,-76,-12,35,-101,-3,-37,-23,50,-14,34, 
  /* [82][0][][] */ 127,104,-23,55,-84,-14,-97,-4,-68,15,94,-57,-27,99,3,-31, 
  /* [83][0][][] */ 127,57,23,-28,-14,6,-27,34,30,38,73,-38,-64,-28,-34,-101, 
  /* [84][0][][] */ 8,-64,-127,23,12,-34,-8,-98,-54,-40,-31,51,-27,-54,9,10, 
  /* [85][0][][] */ -24,-39,-83,-41,-26,-71,61,114,-67,74,-17,9,-18,78,127,-28, 
  /* [86][0][][] */ 126,-29,-12,-5,11,-52,61,55,-11,-47,-127,17,-44,15,-2,41, 
  /* [87][0][][] */ -8,20,-10,-33,-10,54,-9,34,33,-26,37,-3,3,-127,28,-28, 
  /* [88][0][][] */ 18,-14,-105,-79,12,-67,-12,-64,-94,-60,22,-26,-127,9,52,-7, 
  /* [89][0][][] */ -3,-8,17,-127,-24,51,-16,23,68,-35,52,8,-30,3,-25,7, 
  /* [90][0][][] */ 51,56,16,45,61,27,119,-127,56,98,-104,44,5,-59,-43,-76, 
  /* [91][0][][] */ 30,-15,-10,4,0,-127,-34,9,1,-26,-54,-10,13,4,10,0, 
  /* [92][0][][] */ 59,51,127,52,37,34,-29,18,-35,14,-75,-35,18,89,-27,-17, 
  /* [93][0][][] */ 90,-90,-127,-69,-34,-47,-27,82,-47,30,-64,-16,-29,32,32,112, 
  /* [94][0][][] */ 25,-20,48,74,91,-26,-3,67,-5,8,-18,10,-3,127,-23,-52, 
  /* [95][0][][] */ -96,62,38,56,6,54,23,18,30,-11,127,-12,9,12,10,-31, 
};
const TfArray<96, float> quant19_scale = { 96, { 0.00061719387304037809, 0.0011635512346401811, 0.00064507045317441225, 0.001938803936354816, 0.00080358644481748343, 0.00054474902572110295, 0.00056734879035502672, 0.0014503682032227516, 0.0010228758910670877, 0.00030356922070495784, 0.00073717848863452673, 0.00091772235464304686, 0.0012437409022822976, 0.00084334769053384662, 0.00111454410944134, 0.0010244357399642467, 0.0010650074109435081, 0.00089610257418826222, 0.0007234768127091229, 0.0011454584309831262, 0.0011445229174569249, 0.00069571170024573803, 0.00058830599300563335, 0.00056542269885540009, 0.00086269952589645982, 0.00089775625383481383, 0.0011038003722205758, 0.00079437857493758202, 0.0027363768313080072, 0.0007153097540140152, 0.0006058358121663332, 0.00062288832850754261, 0.00036341272061690688, 0.0011894354829564691, 0.00071097561158239841, 0.0016961940564215183, 0.00039192748954519629, 0.0013126737903803587, 0.0014148449990898371, 0.00052807910833507776, 0.0011795009486377239, 0.00053433765424415469, 0.00065042759524658322, 0.00067037512781098485, 0.00089516548905521631, 0.00074010388925671577, 0.00053301785374060273, 0.00043483226909302175, 0.00094604486366733909, 0.00069667951902374625, 0.00074305373709648848, 0.0026682957541197538, 0.00071416411083191633, 0.00070247543044388294, 0.00060720182955265045, 0.00036501220893114805, 0.0011543232249096036, 0.0007535522454418242, 0.00088890531333163381, 0.00093254027888178825, 0.00038084728294052184, 0.0004367379005998373, 0.0012852313229814172, 0.0015301996609196067, 0.00063293555285781622, 0.00081419735215604305, 0.00083930423716083169, 0.0012657660990953445, 0.00058938539586961269, 0.00054934254148975015, 0.00085221859626471996, 0.0012157533783465624, 0.00049832544755190611, 0.0013127264101058245, 0.00060612184461206198, 0.0011472566984593868, 0.00038524353294633329, 0.0014426774578168988, 0.00028584172832779586, 0.00096290395595133305, 0.00060233083786442876, 0.0012817798415198922, 0.00065951637225225568, 0.0012278741924092174, 0.00097260315669700503, 0.00083368108607828617, 0.00056434789439663291, 0.001262121251784265, 0.00039696108433417976, 0.0018534384435042739, 0.00037618467467837036, 0.0015470831422135234, 0.00066628929926082492, 0.0002739673072937876, 0.0011832700110971928, 0.00074216036591678858, } };
const TfLiteAffineQuantization quant19 = { (TfLiteFloatArray*)&quant19_scale, (TfLiteIntArray*)&g0::quant6_zero, 0 };
const MODEL_SECTION(EI_MODEL_SECTION) ALIGN(16) int32_t tensor_data20[16] = { -36737, 10, 375, -9657, 1346, -2085, -10303, -38863, 11699, 31959, 37175, -6429, -4872, -21225, 41943, -45390, };
const TfArray<16, float> quant20_scale = { 16, { 0.00058365741278976202, 0.0005822344683110714, 0.0010356508428230882, 0.00088286673417314887, 0.00074841291643679142, 0.0010633183410391212, 0.0010365868220105767, 0.0005781552754342556, 0.00055366428568959236, 0.00067500834120437503, 0.00064679532079026103, 0.00075646920595318079, 0.00084347010124474764, 0.0013214796781539917, 0.00049686158308759332, 0.00053557916544377804, } };
const TfLiteAffineQuantization quant20 = { (TfLiteFloatArray*)&quant20_scale, (TfLiteIntArray*)&g0::quant8_zero, 0 };
const MODEL_SECTION(EI_MODEL_SECTION) ALIGN(16) int8_t tensor_data21[16*1*1*48] = { 
  /* [0][0][][] */ -7,-11,-19,40,10,-12,23,79,-21,13,23,10,13,-32,1,12,25,-10,11,5,58,1,25,127,-14,54,10,-11,14,-9,8,-17,-30,64,18,-30,23,32,11,-10,-61,-29,19,39,37,20,-103,-46, 
  /* [1][0][][] */ -39,-15,35,20,-25,0,2,66,-54,-53,3,-48,-15,-8,22,-11,-11,108,-10,4,-13,8,-18,-12,31,-40,1,8,-31,-91,-47,35,-26,-2,41,-8,16,-39,1,22,-11,-28,127,22,-26,5,9,-14, 
  /* [2][0][][] */ -26,-9,-8,-43,-2,-56,5,-7,1,3,28,15,18,10,-13,6,-12,-21,-18,-1,-13,-1,3,-127,6,77,-10,6,-4,-21,-2,-3,-1,33,14,-4,15,5,17,-2,-54,16,-16,1,-5,-8,11,-2, 
  /* [3][0][][] */ -6,31,-11,-36,-1,0,6,1,-23,-5,5,37,-127,12,8,3,3,2,-20,1,-36,1,4,16,-15,-8,5,23,-4,19,5,18,15,1,18,21,-10,26,35,15,13,10,29,-25,7,-14,6,20, 
  /* [4][0][][] */ 25,-28,-8,-7,16,28,27,-8,-36,-3,0,-15,-2,3,1,17,13,-14,-71,15,-15,11,-4,59,10,-11,7,40,14,-64,6,9,26,-32,32,-127,12,21,-2,8,-22,21,9,-35,-8,-14,7,-2, 
  /* [5][0][][] */ 32,-2,-31,51,-8,-7,13,26,3,-10,57,14,0,51,11,-1,-35,21,26,8,8,0,-2,-33,2,-45,13,-15,-6,-10,1,-3,73,-127,1,30,-26,-14,6,7,-103,54,30,-2,5,-7,-106,-9, 
  /* [6][0][][] */ 28,0,-3,12,1,-14,2,-16,-2,2,-13,4,-12,2,5,6,4,-15,127,16,3,6,27,-28,-3,1,20,-18,-12,-3,4,12,-6,-7,35,-38,8,-43,57,12,6,-4,-15,13,-17,4,6,-7, 
  /* [7][0][][] */ -28,-10,-18,39,-10,73,-17,37,-3,49,-31,127,74,-2,-5,-13,-13,-24,-19,-25,-24,-9,-12,73,-17,-56,-63,-20,-1,-5,-9,5,1,-7,-26,4,8,-53,94,-22,32,26,-75,-48,6,-4,21,-4, 
  /* [8][0][][] */ -41,-63,-5,-14,-3,-5,-4,35,-3,-89,12,53,45,40,15,1,-24,68,-23,13,-40,9,-21,-17,24,24,12,46,-1,123,-1,23,-16,-3,-13,-127,-118,75,1,26,14,-15,111,-26,23,31,3,34, 
  /* [9][0][][] */ -28,2,-16,23,2,-27,-10,0,47,-34,26,55,-65,21,16,-3,-16,18,-57,-31,37,-2,-11,-21,-14,5,48,-21,11,6,22,-19,-1,12,67,-98,-23,-127,-92,3,-44,28,58,2,-8,2,-18,-38, 
  /* [10][0][][] */ -27,-16,-39,-127,26,84,-1,-8,0,44,40,16,57,-59,-30,29,34,-30,63,-40,41,-21,31,57,-39,-114,-25,-44,57,18,36,-61,-25,-75,18,4,19,-51,10,-40,-32,-71,-10,-3,-1,6,26,-55, 
  /* [11][0][][] */ 1,48,-21,49,25,-67,-63,-11,-2,55,-24,4,-2,71,-8,-63,8,43,0,24,-50,-79,22,8,5,-22,23,-23,31,-45,13,-76,31,-17,-36,-79,84,22,14,-127,-2,42,82,-51,-9,-38,6,18, 
  /* [12][0][][] */ 127,-1,-6,9,-3,20,-4,104,21,-10,-48,-33,-9,12,-34,-5,-15,0,-19,-15,1,4,9,23,-1,16,-15,2,1,9,4,-19,11,-81,-4,11,-17,-8,-12,-8,-16,-75,13,-122,-69,-24,86,-8, 
  /* [13][0][][] */ 11,6,2,2,11,-12,-1,-4,-7,17,9,18,-7,-3,3,1,5,-6,6,-5,8,-11,13,-1,-2,1,9,127,13,-6,12,-3,5,1,-41,26,11,-8,8,-17,-13,0,5,2,-11,-3,-12,-18, 
  /* [14][0][][] */ 52,-10,37,-65,81,14,19,-98,-57,-45,-22,127,-85,35,39,-10,60,24,-75,40,11,0,55,-11,17,81,-71,-117,25,-48,93,71,-52,79,-127,-41,-50,37,109,2,-44,-1,33,-4,-5,21,4,-8, 
  /* [15][0][][] */ -6,-64,-71,-15,17,41,93,-61,10,30,-37,-14,70,21,-89,61,72,57,101,-85,-93,-10,53,-23,-95,32,51,61,25,75,44,-36,17,91,93,127,-29,-92,-13,-37,111,50,107,-63,34,-39,-18,79, 
};
const TfArray<4, int> tensor_dimension21 = { 4, { 16,1,1,48 } };
const TfArray<16, float> quant21_scale = { 16, { 0.024805439636111259, 0.024744965136051178, 0.044015157967805862, 0.037521835416555405, 0.031807549297809601, 0.045191030949354172, 0.044054940342903137, 0.024571599438786507, 0.023530732840299606, 0.028687853366136551, 0.027488801628351212, 0.032149940729141235, 0.035847477614879608, 0.056162886321544647, 0.021116616204380989, 0.022762114182114601, } };
const TfLiteAffineQuantization quant21 = { (TfLiteFloatArray*)&quant21_scale, (TfLiteIntArray*)&g0::quant8_zero, 0 };
const MODEL_SECTION(EI_MODEL_SECTION) ALIGN(16) int32_t tensor_data22[48] = { 2042, 44356, -671, 63544, 4938, 130204, -4745, 51582, 5027, 38835, 26145, 2513, 6116, 30596, -3396, -4812, -142, -1029, 2017, -159, 448, -2474, -2623, -20204, -3647, 42961, 149425, 112817, 3296, 6719, -1847, 1542, 25348, 1308, 56654, -9666, 62751, 2920, 45021, 2062, 4702, 55939, 103, 3166, 47234, -754, 2803, 46904, };
const TfArray<1, int> tensor_dimension22 = { 1, { 48 } };
const TfArray<48, float> quant22_scale = { 48, { 8.1013284216169268e-05, 3.1248862796928734e-05, 0.00016365687770303339, 3.7816149415448308e-05, 0.00014300689508672804, 6.0203405155334622e-05, 0.00014931046462152153, 0.0001151348405983299, 6.7318695073481649e-05, 4.0779610571917146e-05, 4.910186180495657e-05, 8.5476625827141106e-05, 3.6374469345901161e-05, 3.4927455999422818e-05, 0.00016325003525707871, 0.00013742643932346255, 0.00014370799181051552, 9.3584705609828234e-05, 0.0001149603704106994, 0.00011840990919154137, 6.8450986873358488e-05, 0.00016683169815223664, 0.00010216116061201319, 0.00011230062955291942, 0.00012695796613115817, 0.0001050261125783436, 2.7398638849263079e-05, 6.356101221172139e-05, 0.00013320604921318591, 9.5361901912838221e-05, 0.00011413221363909543, 0.00013460776244755834, 4.8870162572711706e-05, 0.0001134217600338161, 2.6169123884756118e-05, 6.3093932112678885e-05, 9.3462433142121881e-05, 7.5949224992655218e-05, 0.00012764826533384621, 0.00010538338392507285, 7.3538401920814067e-05, 0.00010846419900190085, 8.9619330537971109e-05, 8.927712042350322e-05, 2.4528397261747159e-05, 0.00017438779468648136, 8.8110413344111294e-05, 2.6427294869790785e-05, } };
const TfArray<48, int> quant22_zero = { 48, { 0,0,0,0,0,0,0,0,0,0,0,0,0,0,0,0,0,0,0,0,0,0,0,0,0,0,0,0,0,0,0,0,0,0,0,0,0,0,0,0,0,0,0,0,0,0,0,0 } };
const TfLiteAffineQuantization quant22 = { (TfLiteFloatArray*)&quant22_scale, (TfLiteIntArray*)&quant22_zero, 0 };
const MODEL_SECTION(EI_MODEL_SECTION) ALIGN(16) int8_t tensor_data23[1*3*3*48] = { 
  /* [0][0][][] */ 67,-114,95,73,50,-39,106,-68,70,-93,-74,53,55,-45,-65,-87,109,81,56,78,68,-74,-84,54,-35,-41,-71,-69,-68,60,-60,-119,-28,44,73,69,-67,55,-54,-23,53,-73,57,63,-98,11,79,-34, 81,-106,127,92,-82,-70,-47,-80,96,-101,-55,78,79,-111,-90,103,-47,96,86,127,88,-115,51,69,-51,-81,-76,-81,53,77,-28,-127,-84,81,84,86,-81,82,-87,-13,73,-94,84,95,-76,-127,91,-101, 35,-54,70,39,17,-44,-42,-38,44,-34,7,38,28,-78,-51,-1,-59,41,38,72,32,-56,30,28,-26,-54,-53,-25,32,34,88,-88,-77,44,33,39,-37,38,-41,-10,43,-42,35,48,-12,-9,38,-64, 
  /* [0][1][][] */ 90,-116,-53,97,55,-86,127,-93,93,-123,-77,85,85,-108,-15,-127,127,107,76,-45,82,109,-127,73,70,-79,-97,-103,-127,85,-71,-14,-92,70,108,103,-86,80,-84,88,84,-102,85,92,-95,105,96,-84, 127,-127,-68,127,-127,-127,-80,-127,127,-127,-127,127,127,-127,-24,107,-76,127,127,-57,127,127,73,127,127,-127,-127,-127,50,127,-31,12,-127,127,127,127,-127,127,-127,127,127,-127,127,127,-127,-10,127,-127, 63,-79,-37,73,39,-63,-46,-67,62,-52,-54,60,46,-55,-15,12,-68,52,61,-36,58,62,54,66,67,-70,-70,-49,36,63,127,12,-61,68,43,52,-56,63,-57,54,65,-62,54,60,-62,-69,65,-49, 
  /* [0][2][][] */ 41,-58,-50,51,28,-51,63,-48,42,-85,-12,44,61,-75,84,-81,78,52,41,-36,28,-8,-78,34,-30,-47,-53,-58,-72,33,-42,86,-74,41,49,44,-29,41,-43,-88,49,-49,39,49,-31,17,45,-75, 70,-76,-43,84,-56,-61,-64,-71,55,-88,-58,64,79,-51,127,37,-47,61,62,-55,54,-16,48,72,-52,-69,-82,-73,32,62,-25,112,-55,70,57,57,-50,60,-66,-103,75,-65,58,64,-85,52,63,-58, 38,-45,-26,51,29,-16,-12,-38,22,-35,-53,31,35,3,69,23,-36,22,33,-39,29,0,42,47,-26,-28,-56,-31,36,35,61,65,-2,37,12,24,-26,33,-26,-54,33,-33,22,33,-62,10,34,-9, 
};
const TfArray<4, int> tensor_dimension23 = { 4, { 1,3,3,48 } };
